3594 100
9 0.677732 0.031793 -0.104776 0.105698 0.060653 -0.493889 -0.005686 0.135177 -0.491389 0.114131 0.088665 0.070644 0.284210 -0.173188 -0.393954 0.291566 0.102908 -0.026259 -0.307592 0.367298 0.196467 -0.094254 0.033884 0.031456 0.062548 0.258577 -0.190486 -0.148814 0.130449 0.269809 -0.145584 -0.148042 -0.333125 0.262215 0.141523 -0.185853 0.291988 0.023838 -0.165561 -0.052177 -0.097532 0.052656 -0.454954 0.569871 0.122244 0.228573 0.076944 -0.285410 -0.463486 0.372078 -0.288523 -0.175330 -0.063294 0.095138 -0.165324 0.116335 0.170078 -0.200742 0.159391 0.238412 -0.324758 -0.070981 -0.066590 0.101524 -0.182159 -0.509494 -0.047725 -0.573805 -0.026821 0.509581 0.142240 0.015879 0.093101 -0.056838 -0.219174 -0.360893 0.061335 -0.108397 0.070493 -0.269444 -0.238939 0.174597 0.101263 -0.135057 0.583508 0.066600 0.405878 -0.199923 -0.258900 -0.361777 0.090203 -0.410008 0.055255 0.171039 0.815588 0.255920 0.026779 -0.065392 0.048877 0.429734
的 -0.042076 -0.041233 -0.106497 0.278451 0.204197 -0.202095 0.034652 -0.000112 -0.084266 0.182123 0.017309 0.111926 0.074799 -0.170453 -0.024491 -0.001889 -0.117637 -0.059236 0.177536 -0.016092 -0.046868 0.040454 0.041155 -0.250503 0.190418 0.037694 -0.023569 -0.142730 -0.065321 0.034843 -0.032554 -0.090236 0.229169 0.221599 0.268782 -0.100119 0.050266 0.006261 -0.148322 -0.003450 -0.112523 0.007636 -0.235962 0.101198 -0.056268 -0.085150 -0.016327 0.032304 -0.050126 0.040381 -0.355382 -0.181195 0.066730 -0.110122 -0.039626 0.114804 0.132685 0.092224 0.001960 0.041979 -0.145830 0.037974 -0.180436 -0.048792 0.234332 -0.101643 0.015442 -0.449369 0.068463 0.161041 0.151358 -0.113344 -0.018775 0.008370 -0.179293 -0.010064 -0.067633 0.146321 0.122727 -0.107210 -0.424564 0.185526 -0.153087 0.172706 0.144824 0.017349 -0.097712 -0.149049 0.004375 -0.328519 0.130684 0.025668 0.132152 -0.095036 -0.012807 0.155888 0.092423 -0.008299 -0.246881 -0.084962
０ 0.651965 0.051376 -0.116787 0.234981 -0.007699 -0.460975 -0.019495 0.109521 -0.467411 0.036881 0.011166 0.069364 0.329326 -0.252758 -0.331003 0.116429 0.221816 0.045496 -0.227662 0.471089 0.057724 -0.287272 0.004334 0.045641 0.175537 0.288838 -0.164347 -0.162459 0.014938 0.203489 -0.120759 -0.192015 -0.461134 0.270657 0.168202 -0.176884 0.202656 0.051587 -0.313437 -0.225086 -0.125165 -0.045741 -0.442901 0.396064 0.247321 0.242753 0.051685 -0.248181 -0.393061 0.466961 -0.371261 -0.079075 -0.128879 0.207295 -0.201187 0.098270 0.158041 -0.157249 0.236867 0.214499 -0.110348 -0.170613 -0.076636 -0.019553 -0.268748 -0.368723 -0.012516 -0.496745 0.006113 0.518800 0.165131 0.205828 0.313087 -0.104829 -0.224874 -0.409317 0.185147 -0.150362 -0.140451 -0.370433 -0.245297 0.177559 0.091854 -0.267870 0.441395 0.186258 0.558484 -0.205887 -0.350873 -0.353046 0.091603 -0.233087 0.303214 0.183820 0.721049 0.178755 -0.036705 -0.233482 -0.089047 0.233096
一 -0.258491 -0.176766 -0.262218 0.334763 -0.123272 -0.088015 0.090284 0.287663 -0.146820 0.058424 -0.204960 0.019816 0.065253 -0.240751 -0.188518 0.169931 -0.222026 -0.275416 0.112886 -0.100514 -0.229966 -0.003991 0.101471 -0.200618 0.159804 0.310301 0.213343 -0.063473 -0.025208 0.081527 0.036196 -0.157846 0.310076 0.168640 -0.011104 -0.140083 0.047233 0.070416 -0.021628 0.083734 -0.048563 0.030114 -0.594198 -0.347672 -0.042450 -0.003558 0.133415 -0.037987 -0.272387 -0.176667 -0.078294 -0.087654 0.097141 0.069438 -0.008140 0.160918 0.217635 -0.052314 0.026510 0.079252 -0.160531 0.006469 -0.311757 0.247551 0.277361 -0.197494 -0.017273 -0.373505 0.159264 0.387086 0.081166 -0.171835 0.229544 -0.010462 0.178446 -0.157417 -0.072912 0.108784 -0.096865 -0.058580 -0.135496 0.210461 -0.043388 0.359408 0.421834 -0.060808 0.318215 -0.321539 -0.300083 -0.047624 0.183054 -0.364178 -0.196450 -0.025063 0.186158 0.077544 -0.245614 -0.019393 0.013866 -0.084240
在 0.107662 -0.011515 0.126655 0.015016 0.019012 -0.077221 0.231212 -0.099711 -0.251227 -0.012785 0.006715 0.247417 -0.017323 -0.095545 0.012279 0.185215 -0.053370 0.030234 0.205102 -0.045558 -0.098731 0.007877 0.191444 0.155394 0.228631 0.153338 0.026765 -0.170809 -0.051598 0.118268 -0.003916 0.163017 0.197940 0.286848 0.110185 0.007599 0.000814 -0.367632 -0.260052 -0.054601 0.009077 0.028910 -0.291436 -0.129240 -0.263377 0.000915 0.085038 0.234023 -0.101566 -0.078012 -0.396453 0.106685 -0.096607 -0.096170 0.054101 0.108136 0.217621 0.057429 -0.005924 0.233198 -0.049402 0.125682 0.010137 -0.169203 0.143861 0.125825 0.146000 -0.510625 0.007924 0.185320 0.120822 0.032127 -0.162295 -0.007316 -0.002367 0.189074 -0.093893 0.274529 0.204692 -0.322756 -0.256245 -0.034153 -0.048224 0.195049 0.359908 0.057190 0.018982 -0.352513 -0.087515 -0.328538 -0.020003 -0.054664 0.189543 0.086492 0.107870 0.036381 -0.094680 -0.016709 -0.140701 -0.091237
是 -0.058907 -0.109945 0.055857 0.075152 0.105226 0.136548 -0.049404 -0.247399 -0.083472 0.045164 0.034362 0.141018 0.001115 -0.076126 0.042564 0.137748 0.200328 0.299990 -0.041193 0.098919 -0.138862 -0.112306 0.043668 -0.007022 -0.009804 -0.013741 -0.081963 -0.256492 0.039357 0.021439 -0.142758 -0.027093 0.180034 0.158196 0.261420 -0.276000 -0.152758 -0.361385 0.015715 0.014277 0.004860 -0.082606 -0.186299 -0.428172 -0.319731 -0.139695 0.039793 0.440867 -0.010193 0.034747 -0.480677 -0.095556 0.074612 -0.040258 0.230103 0.307286 0.066988 0.031763 0.048626 0.158595 -0.080713 0.004442 -0.265327 0.057542 0.279935 -0.093386 0.027770 -0.418514 0.257524 0.194958 0.139548 0.200270 0.008940 -0.135897 -0.092476 0.162331 0.108479 0.307863 0.021428 -0.224585 -0.295642 -0.021017 -0.129635 0.119842 0.267260 0.115971 0.177617 -0.192552 -0.056287 -0.068850 0.151470 -0.217688 0.012699 -0.144377 -0.030085 0.109713 -0.204341 0.007559 -0.045897 -0.253815
中 0.010046 -0.025648 -0.231418 -0.114143 0.234970 -0.363636 0.147886 -0.011820 -0.178886 -0.003708 0.144072 0.134066 -0.148795 -0.009858 -0.164250 0.061914 -0.023391 -0.072446 -0.108999 0.106399 -0.078681 -0.270326 0.330975 0.030178 0.504414 -0.052674 0.066931 -0.186595 -0.205284 0.012230 0.257461 -0.185667 -0.170214 0.082580 0.138138 -0.143026 0.079864 0.025548 -0.175839 -0.061812 -0.248856 -0.092429 -0.227816 0.011956 -0.014798 0.043657 0.086546 0.134016 -0.304478 0.017460 -0.420067 -0.133791 0.091355 -0.070438 -0.049681 0.263986 0.254155 0.072232 0.096033 0.304770 -0.194600 0.131958 -0.053943 -0.048898 0.164425 0.107449 0.148192 -0.485654 0.206522 0.006924 0.027303 -0.163655 -0.073222 -0.117727 -0.081022 -0.001942 0.170340 0.183347 0.428464 0.002501 -0.511332 -0.006688 0.239217 -0.088733 0.228587 -0.022920 -0.192541 -0.072526 -0.269519 0.020707 -0.313762 -0.342890 -0.261490 -0.062608 0.198509 0.134364 0.027466 0.111994 -0.385824 -0.038844
有 -0.340425 -0.178261 -0.258318 0.284707 0.092138 0.129456 -0.079925 -0.395887 -0.085926 0.084604 0.253351 0.129597 -0.001241 -0.350431 0.011235 0.079245 -0.059933 0.201305 0.222603 0.116255 0.085874 0.383230 0.003104 -0.069398 0.127490 0.084136 0.079307 -0.029835 -0.209038 0.325431 -0.071679 -0.217178 0.350231 0.166403 0.423239 -0.091194 -0.043494 0.042747 -0.378549 0.283582 -0.274228 0.110568 -0.152845 -0.121331 -0.114803 -0.084240 -0.135819 0.264281 0.094622 -0.020315 -0.228427 -0.386624 -0.013736 0.031962 0.193580 0.021216 0.603293 0.061383 -0.014799 0.107304 0.237672 -0.154597 0.016309 0.057294 0.154919 -0.107458 0.098162 -0.361329 0.108042 0.295070 0.227888 0.012179 0.122886 -0.375797 -0.421218 -0.058781 -0.131390 0.253253 0.061590 -0.391423 -0.235207 -0.080648 0.190137 -0.023142 0.198686 0.362720 0.251253 -0.266046 -0.237166 -0.160358 -0.013309 -0.116567 0.126937 0.169324 -0.045891 -0.117201 0.107829 -0.213826 0.053620 -0.170143
了 -0.098393 -0.172235 0.007868 0.332277 0.035684 -0.230375 -0.013277 0.059535 -0.229896 0.132267 -0.060571 0.003732 0.183022 0.057406 0.035125 0.020730 -0.028515 -0.105669 0.016313 -0.030615 -0.208423 0.177384 -0.111366 0.025686 0.132565 0.320261 -0.075129 -0.060382 -0.282771 0.222839 0.081926 0.073034 -0.012845 0.362394 0.049871 -0.059085 0.200300 0.030477 -0.050361 -0.076447 0.069240 -0.196930 -0.400512 -0.075051 -0.037307 -0.124112 0.041571 -0.066096 -0.009861 -0.311998 0.066709 -0.389810 0.040745 -0.144275 -0.367103 0.109433 -0.067329 0.180581 0.076718 0.103016 -0.240417 0.051987 -0.213702 -0.177066 0.138614 -0.148747 -0.024869 -0.050969 0.121172 -0.024738 -0.055449 0.068632 0.199926 -0.126529 0.037221 0.268192 0.150379 0.404114 -0.128240 -0.407966 -0.461116 0.102449 -0.010719 0.034129 0.069049 0.332467 0.148026 -0.089743 0.071521 0.034451 0.164367 -0.278506 0.281078 -0.311724 0.110774 0.211892 -0.068086 0.295131 -0.403756 0.043613
人 -0.072200 -0.101029 -0.017552 0.055793 0.106504 -0.315244 -0.126910 0.220614 -0.225936 0.138286 0.454559 -0.483712 -0.022777 -0.162183 -0.295277 0.064198 -0.117027 0.261101 -0.085531 0.180138 -0.147975 0.396618 0.179610 -0.391301 0.057519 -0.277833 -0.212768 0.102237 -0.432782 -0.066398 -0.081902 0.025819 0.138916 0.305331 0.201655 -0.042673 -0.032684 0.325888 -0.386217 -0.269572 -0.123494 0.092369 -0.307208 -0.348201 -0.029384 -0.136642 0.130524 0.253463 0.012650 -0.084505 -0.483637 -0.245529 -0.334038 -0.256020 -0.036105 0.147075 0.243106 -0.148406 -0.004659 0.177847 -0.124377 0.012695 0.014590 -0.008805 0.364779 0.035179 0.149966 -0.186982 0.280003 -0.004961 0.048810 0.162826 0.149732 -0.044413 0.176511 -0.064641 0.233257 0.100975 -0.080449 -0.136840 -0.423364 0.289117 0.235034 -0.416798 0.043763 0.198388 0.263845 -0.303609 0.001885 0.112710 0.460262 -0.061816 -0.234556 0.004190 0.099595 0.218587 -0.029035 0.007760 -0.033286 -0.204295
不 0.106764 -0.192310 -0.348456 0.284150 0.120908 -0.179190 -0.167386 0.129809 -0.039896 0.007159 -0.185675 -0.079245 0.060188 0.258382 0.151610 0.053102 -0.173379 0.438790 0.104595 -0.220818 -0.561528 -0.155399 -0.202961 -0.155765 -0.133862 0.169089 0.129109 0.052827 0.102475 0.150280 -0.170755 -0.192318 0.141865 0.112382 0.125609 -0.234944 0.129745 0.067539 0.009204 0.187453 -0.198118 -0.431564 -0.416233 -0.031372 -0.016661 -0.159417 0.236423 0.260164 -0.069693 -0.255254 -0.156720 -0.130765 0.056802 -0.145293 -0.092405 0.245076 0.363166 0.160174 0.336092 0.201421 -0.112933 -0.135064 -0.182266 -0.008304 0.146228 -0.140960 0.141498 -0.563204 0.025108 -0.146024 0.039947 0.134605 0.252496 -0.326844 -0.222884 0.048444 -0.115916 0.152136 -0.084354 -0.383910 -0.332951 -0.144480 -0.237833 -0.168608 0.001722 0.289928 -0.037187 -0.110935 -0.118976 0.035408 0.073219 -0.238066 0.242391 -0.296436 -0.270182 0.210739 -0.163023 -0.448549 0.167581 -0.295957
国 -0.304260 -0.003309 -0.035241 -0.145883 0.279903 -0.557307 0.201726 -0.223770 -0.263466 0.125524 0.165840 0.029047 0.044957 -0.411649 0.090961 -0.434560 -0.161013 0.216522 -0.088043 0.320154 -0.115799 -0.060002 0.255315 -0.045954 0.662263 0.250858 -0.335922 0.002808 0.131675 0.181030 -0.496920 -0.081801 -0.105408 -0.269173 0.458045 0.148569 0.119553 -0.192688 -0.172869 -0.246479 0.030137 -0.184014 -0.290393 -0.369790 -0.150771 0.185928 -0.075984 0.087566 -0.119067 0.002661 -0.282495 -0.143184 0.065517 0.033164 -0.043210 0.122310 0.226668 -0.102240 -0.175388 0.078875 -0.433285 0.545819 -0.005270 -0.106727 -0.007820 0.147312 0.327520 -0.107727 0.274472 0.347165 0.091383 0.053888 0.263406 -0.173256 -0.333693 -0.394973 0.023838 -0.023061 0.531950 -0.099592 -0.085579 0.041189 0.175358 -0.018895 0.218646 0.000050 0.005531 0.067012 -0.365467 -0.413241 0.266197 -0.045253 -0.164122 0.123661 -0.053822 0.383945 -0.349724 0.105081 -0.337657 -0.197769
大 -0.137847 0.041870 0.190838 0.405453 0.195255 -0.039325 0.029909 -0.169559 -0.074837 0.060627 0.047702 0.294834 0.088969 -0.323816 0.193491 -0.092710 -0.171191 -0.290106 -0.015634 0.344652 -0.178207 0.046959 0.210308 -0.311630 0.244501 -0.186512 0.129857 -0.244478 0.216812 -0.005184 0.050665 0.306633 -0.015688 0.228268 0.424628 0.172447 -0.026841 0.226553 -0.244989 0.352127 0.194130 -0.139325 -0.099570 0.018826 0.016508 0.152176 0.195101 0.165625 -0.028699 -0.172989 -0.469842 -0.172290 0.363979 0.130039 -0.249808 -0.125239 0.200761 -0.021231 -0.265129 0.306538 -0.211485 -0.239369 -0.238546 -0.087594 0.615423 -0.020665 0.084786 -0.239171 -0.163347 0.280658 -0.051241 -0.099626 -0.067381 0.000060 -0.273890 -0.193040 -0.112681 0.132764 0.086383 -0.339850 -0.380715 -0.049667 0.208770 -0.041399 0.278300 0.051136 0.108141 0.060681 -0.584697 -0.038103 -0.065097 -0.556131 0.113766 0.157166 -0.003098 0.027914 0.080146 0.114915 0.044786 -0.013389
上 0.071245 -0.000135 -0.065742 0.053355 0.272801 -0.223425 0.227030 -0.316479 -0.244390 -0.089161 -0.053934 0.182645 0.306830 -0.035129 -0.002038 0.240231 0.061607 -0.205372 0.093041 -0.203143 -0.212743 -0.094481 0.236668 0.054955 0.393754 0.095773 -0.171783 -0.236816 0.202970 0.308636 0.176879 -0.257932 -0.115048 0.575215 0.022901 -0.233411 0.030198 0.189655 -0.438264 0.100941 0.088279 -0.133351 -0.446752 -0.091835 -0.041478 0.248269 -0.114579 -0.289801 -0.065456 -0.403458 -0.093608 -0.067656 -0.041975 -0.175621 -0.232494 0.184149 0.045680 -0.042618 0.050253 0.436966 0.229489 0.091583 -0.046395 -0.081046 0.022412 -0.085374 0.155995 -0.270078 0.086771 0.365548 0.119340 0.113905 -0.244500 -0.107679 0.137943 0.099694 -0.059092 0.325279 -0.052455 -0.045665 -0.233856 0.598293 -0.002805 -0.095330 -0.082098 -0.312795 0.105378 -0.266707 -0.053484 0.050612 0.000899 -0.299461 -0.057499 0.102690 0.021976 0.282831 -0.209938 -0.237013 -0.296389 0.011429
为 0.393507 -0.083304 -0.240278 0.177841 0.028970 -0.098697 -0.102801 -0.079285 -0.101057 0.129880 -0.212938 -0.132281 0.038192 -0.160369 -0.047285 0.204424 0.030658 -0.007654 -0.006299 0.164436 0.074334 0.255496 0.104963 -0.018701 0.097505 0.113938 -0.369688 -0.308891 0.012795 -0.172361 -0.095837 0.013614 0.106505 0.499708 0.588069 -0.229326 -0.100237 -0.230857 -0.162494 -0.119842 -0.066166 -0.080958 -0.308694 0.036135 -0.399041 0.159781 0.056974 0.045181 -0.242565 0.346162 -0.368937 -0.113030 0.209406 -0.345206 0.073382 0.207285 0.136271 0.059836 -0.272292 -0.038657 0.219529 0.158238 -0.185171 -0.151984 0.287096 -0.016559 0.213543 -0.383350 0.038168 0.166504 -0.243475 0.301229 0.109595 -0.086017 0.039592 -0.326489 -0.111174 0.104000 0.102818 -0.069886 -0.340333 -0.030047 -0.130516 -0.055774 0.286812 -0.104717 -0.062997 -0.245926 -0.225232 -0.139615 0.067674 -0.011684 0.374114 -0.230186 -0.119966 0.035178 -0.171681 0.040464 -0.372795 -0.136205
“ -0.116711 -0.010328 0.024059 0.129688 0.012947 -0.049998 -0.071957 -0.023812 -0.274905 0.072647 0.090495 0.372347 -0.201756 0.025717 -0.138505 0.099051 0.092986 -0.002727 0.083647 0.119881 -0.083082 0.152040 -0.002382 -0.160229 0.159460 0.029460 -0.089125 -0.262543 -0.191502 -0.117887 -0.136275 -0.189510 0.293458 0.193081 0.165335 -0.176038 -0.067800 -0.172885 -0.033611 -0.109195 0.169317 -0.468668 -0.332174 0.011377 0.123160 0.224519 0.181224 0.054604 -0.024069 -0.287677 -0.088913 -0.328482 0.059019 -0.280515 -0.148785 -0.000158 0.102740 0.299181 0.058528 0.019365 -0.059659 0.174270 -0.269437 -0.066440 0.280704 0.151018 -0.083214 0.002609 0.212288 0.021016 -0.017701 0.431262 0.199098 0.000215 0.133060 -0.053926 -0.157315 0.332927 -0.045610 0.003473 -0.225012 0.103653 -0.292704 0.196577 0.130797 0.096712 0.018489 -0.116390 -0.069115 -0.307784 0.300145 0.006103 -0.041001 0.202522 0.139668 0.109876 -0.209977 -0.042919 -0.164995 -0.085148
” 0.015682 -0.022873 0.091393 0.147194 0.132711 -0.032297 -0.103058 0.119580 -0.307936 0.223980 0.138506 0.133450 -0.214502 -0.006594 -0.110268 0.086768 0.023315 0.117845 0.060463 0.011533 -0.052396 -0.032193 0.073859 -0.141075 0.013054 -0.183246 -0.070314 -0.143600 0.061544 -0.014970 0.026972 -0.187003 0.200597 -0.023806 0.087383 -0.199019 0.134743 -0.157837 -0.018925 -0.074939 0.061659 -0.416100 -0.095712 0.036237 -0.084389 0.079123 0.121902 0.010960 -0.030407 -0.200934 -0.200246 -0.168061 0.135512 -0.381915 -0.052682 0.091434 0.284449 0.375756 0.020277 0.135546 -0.092192 0.084978 -0.295503 -0.008146 0.304656 0.144502 0.004608 -0.003809 0.124052 0.108986 -0.020022 0.350702 0.117730 -0.136315 0.065664 -0.144117 -0.137967 0.262051 0.026422 -0.015095 -0.386195 0.019821 -0.202734 0.217332 0.152580 0.097619 0.140982 -0.026861 -0.148453 -0.161677 0.183545 -0.177732 0.003918 0.189824 0.146249 0.021267 -0.214153 -0.002492 -0.088209 0.181684
和 0.091210 -0.122078 -0.201333 0.267980 0.263543 -0.377787 0.205735 -0.016947 -0.142708 0.185008 0.086234 0.294623 -0.076993 0.069824 0.158174 -0.066756 0.190401 -0.042049 0.151320 -0.066957 0.039978 0.042268 0.056504 -0.314392 0.137991 0.012977 -0.148660 -0.222713 -0.239748 0.119919 0.040430 0.092610 0.289870 -0.011479 0.234828 0.036011 0.132418 -0.027745 -0.246353 -0.120823 -0.026211 -0.002277 -0.159765 0.411693 -0.142873 0.078073 -0.043138 0.086667 0.050856 0.386464 -0.542513 -0.070239 0.015412 -0.136596 -0.199364 0.136975 0.210075 0.040541 -0.079060 -0.034446 -0.137601 0.078032 -0.085519 -0.164741 0.324494 -0.046724 0.247847 -0.398612 0.022473 0.257220 0.177928 0.084576 -0.192217 0.045102 -0.273688 -0.178473 -0.126769 0.052940 0.170950 -0.139655 -0.628806 0.229545 -0.143914 0.137943 -0.018260 -0.088050 -0.166998 0.064076 0.264964 -0.320652 0.156556 -0.044486 -0.089856 0.050828 0.167718 0.068916 0.010153 0.055903 -0.257819 0.001273
年 0.169063 0.038840 0.151246 0.241642 0.434605 -0.449208 0.065335 0.510032 -0.413911 0.041233 -0.000230 0.045116 0.122176 -0.439323 -0.115973 0.214170 0.170164 -0.106641 0.106704 0.357522 -0.037985 -0.252031 -0.091994 0.319519 0.454934 0.256810 -0.036385 -0.428222 0.102558 -0.076730 -0.377545 0.104608 -0.245458 0.475762 0.069869 0.113367 -0.090776 -0.340533 -0.550406 -0.083524 -0.030145 -0.337815 -0.128874 -0.223381 -0.088555 -0.418551 0.205852 -0.179842 -0.141227 0.342354 -0.016246 -0.332572 0.030696 -0.050400 -0.043724 0.393791 0.073808 -0.047070 0.052280 0.166266 0.098657 -0.324109 0.049637 0.084912 -0.269463 0.059482 0.109022 -0.004168 0.189753 0.253783 0.531589 0.197602 0.316411 -0.522802 0.076692 -0.143375 0.301982 -0.078660 -0.103362 -0.232966 -0.237152 0.012370 0.241118 -0.226780 -0.030261 0.326409 0.183684 -0.387084 -0.199476 -0.317990 0.095009 -0.174196 0.141971 -0.003423 0.261822 0.532860 0.180817 -0.396006 -0.530577 0.059927
地 0.019701 -0.049077 -0.190173 -0.009911 0.280606 -0.047939 0.150983 0.128201 -0.043643 0.080908 0.112344 0.299256 0.098558 -0.176056 -0.202660 -0.158659 -0.298613 0.061133 0.003540 -0.069922 -0.046437 0.388524 0.286051 -0.281619 0.405035 0.146822 0.219658 -0.310533 -0.086074 0.137605 -0.031998 0.276725 -0.277227 0.420139 0.167409 -0.114288 0.093831 -0.073426 -0.174378 0.253111 0.149156 -0.225430 -0.343167 0.169784 0.065313 0.173428 0.023976 0.274224 -0.579425 -0.062046 0.311184 0.059229 0.068471 -0.053871 -0.027618 0.058478 0.273439 0.453298 0.027726 0.122071 -0.006357 0.436146 -0.314679 0.285303 0.278989 0.221145 0.018332 -0.126294 0.177313 0.358361 0.047145 0.232401 -0.103814 0.099116 -0.564945 0.302836 0.293434 0.055356 -0.041077 -0.503558 -0.267747 0.203089 0.048613 0.223534 -0.037758 0.237863 -0.153930 -0.285417 0.188486 -0.100641 0.309778 -0.204782 0.234905 0.076583 0.347189 -0.218351 -0.047408 -0.041213 -0.228639 -0.456999
会 -0.002574 -0.389403 -0.132973 0.272030 0.056850 0.026166 0.059771 -0.157459 -0.202867 0.215816 -0.018750 0.104127 0.077450 -0.205839 -0.004754 -0.326775 -0.447067 0.143177 0.106398 -0.096855 0.001629 0.014749 0.135376 -0.092292 0.058853 0.218107 -0.187718 -0.199215 -0.188951 0.261907 -0.109551 0.268717 0.037749 0.368251 0.030733 0.096660 0.019508 -0.175864 -0.221410 -0.102506 -0.205790 -0.336990 -0.016362 -0.325336 0.102441 0.157249 0.050365 0.174228 -0.005990 0.008355 -0.407488 -0.189418 0.173855 -0.163266 0.209271 -0.039232 0.211021 0.241760 0.195650 -0.083391 -0.568758 -0.012872 -0.107184 0.113223 0.468542 0.206825 0.366549 -0.173382 0.307024 0.001838 0.160865 0.302903 0.107032 -0.314851 0.046073 0.439521 0.166301 0.324583 -0.223753 0.194387 -0.376990 0.644466 0.031922 -0.038932 -0.311552 0.186084 0.158124 -0.218194 -0.454454 -0.327924 -0.000716 -0.206613 0.449700 -0.132806 0.089801 0.583582 -0.355517 0.133232 0.079870 0.212006
个 -0.120168 -0.018729 0.256369 0.029454 -0.252250 -0.108591 -0.095021 0.152932 -0.049890 0.006880 -0.076368 0.260364 -0.069248 -0.319208 -0.125477 0.196368 -0.239764 -0.106063 0.155643 0.212030 -0.358923 -0.075915 -0.160513 0.365706 0.298152 -0.115701 -0.015563 -0.211713 -0.023371 0.083860 -0.050551 -0.314276 -0.073706 0.231285 0.379510 -0.157998 -0.068821 -0.392648 -0.510514 0.249280 -0.097621 0.083831 -0.286877 0.156077 -0.129468 -0.196649 0.086716 0.133508 -0.442327 0.020505 -0.113951 -0.155553 0.029335 -0.199889 0.018598 0.214158 0.207478 0.090832 -0.014662 -0.009516 -0.269604 -0.160474 -0.179729 -0.046826 0.291979 0.064718 -0.142777 -0.461627 0.214186 0.322209 0.217294 0.063425 0.137198 -0.351163 0.287448 -0.042281 0.000971 0.233458 0.117616 0.037048 -0.075209 0.175291 0.170928 -0.001512 0.253886 0.252338 0.306766 -0.125470 0.042345 0.076675 0.274853 -0.357612 0.201223 -0.304583 -0.168969 0.306693 0.318721 -0.045196 -0.060352 -0.271572
这 0.003725 -0.196975 -0.206721 0.317219 -0.074934 0.214772 -0.074428 0.008732 -0.240584 0.122360 -0.035399 -0.051167 0.157697 -0.207747 -0.241956 0.255669 -0.049171 0.075027 0.032690 0.009146 -0.064870 0.036715 0.079473 -0.152281 -0.058461 0.221581 0.186889 -0.379689 -0.100502 0.073580 -0.054869 -0.404669 0.185134 -0.006211 0.165726 -0.028586 0.050113 0.003484 0.028115 0.019624 -0.323241 0.095662 -0.323705 -0.415365 0.136454 -0.102159 0.092666 -0.038035 -0.160718 -0.368229 -0.188214 -0.072195 0.084808 -0.199084 0.143025 0.061181 0.398536 -0.226337 0.026274 0.005180 -0.042099 0.258897 -0.296112 0.130107 0.386333 -0.156978 -0.242882 -0.253313 0.355994 0.249304 0.142420 0.009883 0.328064 0.085825 -0.187376 0.032711 0.041209 0.481145 0.046153 -0.198684 -0.283808 0.197837 0.009872 0.205751 0.136467 0.094798 0.150148 -0.461969 -0.227470 -0.111956 0.338156 -0.165885 -0.169792 -0.133766 -0.035340 0.141535 -0.292496 0.113723 -0.023493 -0.195381
时 0.235444 -0.180966 0.132068 0.226164 -0.096187 -0.379198 0.308699 -0.176929 -0.052916 0.126008 -0.184816 0.247360 -0.047594 -0.088792 -0.163887 0.130322 -0.225844 0.181953 0.572153 -0.005643 0.093199 -0.273121 0.199148 -0.092632 0.029865 0.192605 -0.193824 -0.355865 -0.205892 0.307041 -0.312852 0.182446 -0.014763 0.604437 -0.154053 -0.104479 0.222824 0.004551 -0.147164 -0.116395 -0.212783 0.104091 -0.276914 0.052083 -0.408510 -0.199876 0.138045 0.126211 0.008004 -0.209623 0.055042 -0.234677 0.096503 0.150655 0.005362 0.145291 0.395529 0.371666 0.339621 0.292698 -0.354747 -0.359301 0.029133 -0.001877 0.108456 0.075943 -0.096576 -0.418126 0.246686 0.126928 -0.222160 -0.107344 0.422121 0.022480 -0.232784 0.368254 0.176155 0.105787 0.011345 -0.411119 -0.010389 -0.149664 0.089969 -0.205975 0.264037 0.246197 0.209216 -0.026937 -0.023102 0.182270 -0.055483 -0.355103 0.398884 0.309959 -0.096518 0.493632 -0.093138 -0.099286 -0.217674 -0.083226
市 0.356455 -0.527940 0.181787 0.393089 0.007716 -0.248497 -0.043425 0.080247 -0.503700 -0.330245 0.317184 0.402604 -0.322720 -0.020380 0.020320 -0.360966 -0.587132 -0.035801 -0.123008 -0.027069 -0.197126 0.034356 0.172857 -0.239034 0.399016 -0.022053 -0.338046 0.030239 0.133666 0.121950 -0.172865 -0.070947 -0.360151 0.128671 0.143437 -0.177386 -0.039376 -0.276007 -0.537855 -0.565915 0.237587 0.339915 -0.387817 -0.048707 0.063467 0.502860 -0.487826 0.265495 0.002005 -0.209816 -0.110303 -0.088869 -0.354445 0.104702 0.390555 -0.135085 0.221637 0.053209 -0.077342 0.246890 0.010799 0.070981 -0.261521 0.078760 -0.002732 -0.106031 -0.109127 0.088622 -0.071933 0.310625 -0.175912 -0.131898 -0.037166 -0.024580 -0.377735 -0.064792 -0.031152 0.028805 0.052333 -0.518207 -0.714050 -0.080659 0.180353 0.298037 0.310270 0.499821 0.073868 0.081732 -0.458557 -0.103730 -0.062989 -0.382035 0.474795 0.034567 -0.122245 0.148812 -0.321673 0.050194 -0.230529 -0.509906
来 0.017266 -0.078393 -0.000941 0.422134 0.209465 0.132424 0.172670 -0.079031 -0.215913 -0.204799 0.169917 0.028134 -0.128965 -0.226535 0.034176 0.039536 -0.077114 -0.234555 0.325872 0.228843 -0.311982 -0.339347 0.086852 0.214984 0.394957 0.470491 -0.140681 -0.057123 -0.002046 0.244442 -0.148862 -0.031968 -0.040183 0.361000 -0.037099 -0.099357 -0.113845 0.237213 0.339816 0.190885 0.253098 -0.040283 -0.114905 -0.019714 0.190810 0.278550 -0.018661 -0.025464 0.043837 -0.265848 0.050618 -0.169334 -0.268074 -0.242875 -0.051689 -0.080579 -0.289049 0.149058 -0.211378 0.375035 -0.338188 0.128976 -0.306698 -0.070263 0.329800 -0.370148 0.229518 -0.346734 0.159464 -0.142723 0.087845 0.263332 -0.071670 -0.244666 0.278588 -0.217933 0.170587 0.323091 -0.046939 -0.010931 -0.274735 -0.240060 0.142168 0.172429 0.097030 0.522803 0.014849 -0.562916 -0.042603 -0.101875 0.336808 -0.232151 -0.140328 0.213667 0.063586 0.140589 -0.173796 -0.161188 -0.258106 -0.299611
发 0.005796 -0.235217 -0.442694 0.439969 0.094890 0.014727 -0.053623 0.242755 -0.161994 -0.266698 0.361712 0.053371 -0.156002 0.054531 -0.049251 0.082979 -0.161588 0.140015 0.307480 0.263150 0.155353 0.046842 0.367743 0.062124 0.600582 0.142161 -0.148458 -0.166173 -0.325700 0.438556 -0.521730 0.044396 -0.103424 0.270640 0.449453 -0.100338 -0.269648 0.284519 -0.016041 -0.135166 -0.244883 -0.126738 0.130691 -0.153096 0.059964 0.140001 0.194208 -0.080919 -0.337209 -0.075361 -0.177066 -0.114249 0.231421 0.059959 -0.032821 0.000175 -0.212475 0.430996 -0.002100 0.226568 0.017989 0.178994 0.278425 -0.175843 0.270653 -0.053123 0.019499 -0.204512 -0.255801 0.666786 0.202275 -0.170017 0.059368 -0.243621 -0.356127 0.481024 -0.319487 0.157588 0.293202 -0.030665 -0.069013 0.438189 0.254686 0.491076 -0.156618 0.113753 0.126680 -0.100631 -0.342267 -0.402680 0.023587 -0.157073 0.244222 -0.307872 0.071033 0.101301 -0.004167 -0.078637 -0.502032 0.154271
公 0.047525 -0.275509 -0.419121 0.170905 0.417653 0.008034 0.303541 0.006040 -0.159639 0.014255 0.032697 0.120161 0.189835 0.178991 -0.099974 0.336355 0.061134 0.205575 0.187429 -0.066773 -0.008865 0.285252 -0.460274 -0.159347 0.474833 -0.135641 -0.047616 0.235106 -0.408957 0.085966 -0.368539 -0.123975 -0.083540 0.238091 0.476587 -0.047991 0.287975 0.185026 -0.612579 -0.338714 0.180510 0.242193 -0.147104 -0.309874 0.619589 0.286612 -0.064930 -0.319269 -0.276972 0.266576 -0.091724 -0.346510 0.281925 -0.179134 0.250950 -0.234777 0.200316 -0.185453 -0.075969 0.243283 0.095463 0.077433 -0.180967 0.159172 0.185838 0.273986 -0.052408 -0.434478 0.113032 0.521456 0.408665 -0.030331 -0.189589 -0.128377 -0.448581 -0.197268 -0.139697 0.002976 0.536898 0.198973 -0.117062 0.146854 -0.071878 -0.133839 0.163641 0.510119 0.461455 -0.427848 -0.380489 -0.406278 -0.291569 -0.241735 0.625504 0.214219 0.121679 0.148418 -0.140114 0.022990 -0.158022 -0.003127
业 0.199274 0.022835 -0.241977 0.645011 0.272951 -0.732100 0.329284 -0.253336 0.078492 0.120655 0.413213 -0.063138 0.152361 0.158731 0.018132 -0.103591 0.000270 -0.006828 -0.034211 0.064832 -0.379449 0.262456 0.016126 -0.037746 0.482229 -0.161184 0.079306 0.086960 -0.301433 0.071794 -0.154450 -0.054131 -0.330925 0.379038 0.208119 -0.295415 0.016463 0.155363 0.068477 -0.149163 -0.023031 -0.148696 0.187543 -0.315898 -0.321400 0.299797 -0.292041 0.269590 0.029815 0.392976 -0.254961 -0.315642 0.278663 -0.357198 0.105854 0.247419 0.174446 -0.298902 -0.183082 0.357395 -0.028408 0.000582 -0.103261 0.241946 0.644641 -0.010577 0.245426 0.065041 0.133466 0.693815 0.279401 0.156174 0.323686 -0.335750 -0.039190 -0.229497 0.174402 -0.008941 0.050509 -0.106243 0.093682 0.271419 -0.059005 0.092200 0.019976 0.375587 -0.113986 -0.353303 -0.172515 -0.246447 -0.015166 -0.737169 0.045375 -0.255804 0.206826 -0.070527 0.041853 0.273278 -0.376800 -0.381982
行 0.112154 -0.028609 -0.113710 0.335651 0.268946 0.043563 -0.086432 0.170472 -0.097408 -0.043892 0.057576 0.056166 0.210381 -0.108451 -0.283345 -0.440969 -0.214408 0.295382 0.238989 -0.056939 -0.115151 0.205058 0.023866 -0.189432 0.462070 0.203027 -0.261363 0.001236 -0.305833 0.228665 0.127437 -0.460962 0.053163 0.028495 0.009876 0.222343 -0.000794 -0.082969 0.016231 -0.425619 0.278317 -0.014571 -0.096219 0.012830 -0.297538 0.419838 -0.288099 -0.017716 -0.105662 0.083205 -0.394888 0.006549 0.243912 -0.194809 -0.152978 0.283068 0.494011 -0.171119 0.085576 0.002181 -0.221422 -0.048190 -0.037691 0.146461 0.308961 0.237570 0.040072 -0.518856 0.185682 0.278634 0.119548 0.123323 -0.223530 -0.275121 0.040513 0.152567 0.182363 -0.201933 0.345168 -0.210691 -0.163411 0.020666 -0.205411 0.248574 0.252120 0.042400 0.493451 0.251481 -0.549676 0.205181 -0.173611 -0.232521 0.281628 0.008613 0.499681 0.159571 -0.410781 0.140166 -0.418071 -0.265784
对 -0.032997 0.077933 0.070107 0.288293 0.356521 -0.103287 0.159845 0.027559 -0.213682 -0.143931 -0.038950 -0.240275 -0.126082 -0.321726 -0.160897 -0.330406 -0.054560 0.091146 0.098636 0.113372 -0.061835 0.061556 0.032779 -0.157775 0.464460 0.081222 -0.189041 -0.326256 0.102187 -0.006686 -0.019248 -0.206682 0.099734 0.024258 -0.125759 -0.316188 -0.022050 -0.065095 -0.162711 0.312359 0.245309 -0.068794 -0.589358 -0.034925 -0.030744 -0.045601 0.191929 0.212553 0.032544 0.215209 -0.173133 -0.216445 0.212984 -0.057490 0.089268 0.317914 0.278693 -0.077895 -0.010250 -0.059061 -0.078113 0.143960 0.266106 -0.053930 0.384541 -0.022455 0.397478 -0.690462 -0.489184 0.188053 -0.115321 0.224209 -0.148819 -0.095219 -0.213311 0.272214 -0.169913 0.355389 0.124139 0.018240 -0.393070 -0.094898 -0.211623 0.486174 -0.013285 0.230463 0.130292 0.076118 -0.026189 -0.473540 -0.052947 -0.175379 0.051583 0.008878 -0.000944 0.110573 -0.158040 0.194698 0.044263 -0.122153
到 0.210076 -0.263388 0.120420 0.334469 0.135696 -0.250820 0.165658 0.128220 -0.019774 0.173975 -0.151500 0.210403 0.130285 -0.020023 -0.142842 0.299266 0.026061 -0.104123 0.069857 0.338386 0.030415 0.155985 0.004977 -0.002450 0.055267 0.263494 -0.312677 -0.221753 0.116868 0.299471 -0.030882 0.027753 0.307371 0.177057 0.391124 0.309949 -0.045533 -0.099385 -0.025909 -0.020832 -0.133254 -0.088265 -0.276235 -0.183524 -0.114496 -0.152409 -0.040382 -0.008281 -0.176982 -0.590862 0.067762 0.023266 -0.293335 -0.023250 -0.188174 -0.016817 0.183337 0.104040 -0.420281 0.375595 -0.006611 0.044955 0.061475 -0.096155 0.321174 0.001582 0.485193 -0.474581 0.208858 0.188312 -0.086020 0.468144 -0.006237 -0.211566 -0.024482 -0.117198 0.282005 0.152972 -0.100539 -0.660135 -0.202929 0.445114 0.334822 0.084445 0.448880 0.280896 -0.009101 -0.044206 0.266492 -0.108494 -0.078205 -0.163686 0.256681 0.077251 0.032622 0.022102 0.056622 -0.224695 0.095187 -0.229877
出 -0.000722 -0.210785 0.172233 0.387979 -0.092786 -0.127917 0.124483 0.238512 -0.077032 -0.105365 0.390902 -0.187562 0.061333 -0.239415 0.121004 0.097412 -0.024386 0.274809 0.106998 0.025182 0.010406 0.071793 -0.061203 0.092337 0.077472 0.395863 -0.296587 0.073388 -0.068218 0.462366 0.148866 -0.005371 -0.098887 0.216732 0.369704 -0.153279 -0.151514 0.291734 -0.339204 -0.068069 -0.285283 -0.189164 -0.356713 -0.179463 -0.448737 -0.296693 -0.239620 0.011573 -0.371380 -0.148699 -0.287792 -0.104639 0.203154 -0.037224 -0.477702 -0.057556 0.218987 -0.010648 -0.089631 0.210814 0.209312 0.106302 0.156161 0.186920 0.009278 0.199268 -0.216303 -0.370417 0.199814 0.183138 -0.151736 -0.016982 0.003054 -0.213426 0.281099 0.205938 -0.282930 0.220940 -0.124456 -0.336834 -0.408540 0.087086 -0.283917 0.106714 0.265553 -0.035924 -0.082983 -0.000004 -0.218438 -0.427730 0.140847 -0.021884 0.401322 0.121962 0.152151 -0.220111 0.035991 0.124684 -0.209951 -0.084842
日 0.340410 0.125871 0.365207 -0.287194 0.181354 -0.219599 0.192950 0.441037 -0.428976 -0.144888 0.160597 0.060733 -0.093698 -0.325370 -0.194396 -0.026176 0.089289 -0.079243 0.360363 -0.150496 -0.127254 -0.045177 0.094984 0.248462 0.335754 0.142804 -0.406117 -0.212159 -0.120322 -0.013257 -0.399563 0.052531 -0.367303 0.663371 0.089558 0.419662 -0.005956 -0.351682 -0.322893 -0.380962 0.004266 0.195970 -0.309809 -0.062409 -0.184767 0.325147 0.244763 -0.083268 -0.254356 0.034952 -0.008213 -0.128008 -0.285823 -0.168423 -0.112468 0.047532 0.100409 0.037767 0.187194 0.054361 -0.121364 0.026748 0.200575 -0.377417 0.276707 -0.065159 0.161454 -0.214690 -0.111610 0.067159 0.127058 0.012317 0.209673 -0.563625 -0.213724 -0.000576 0.182630 0.151410 0.304795 -0.082539 -0.477353 -0.349037 0.220532 -0.014015 0.162120 0.139784 0.103595 -0.206364 0.012759 -0.108061 0.113374 -0.723648 0.132140 0.269313 0.460648 0.497564 -0.029090 -0.185701 -0.089705 0.407689
以 0.313171 0.218007 0.008521 0.199838 0.054390 -0.088140 0.111999 -0.074170 -0.124885 0.038292 0.070752 -0.050259 -0.071670 -0.024609 -0.110567 0.156981 -0.141876 0.183270 0.011279 0.533831 -0.039188 0.147615 0.020248 -0.295247 0.266834 0.334971 -0.313156 -0.263209 -0.109048 0.149903 0.029911 -0.176260 -0.003587 0.398904 0.122603 0.349251 0.069990 -0.072248 -0.313111 0.003286 0.043910 -0.143109 -0.164416 0.028265 -0.150131 -0.098779 -0.254305 -0.096280 0.041726 -0.195817 -0.315256 -0.447831 -0.073549 0.075579 0.130673 0.192799 0.061688 0.094744 0.123207 0.046785 -0.255074 -0.135708 0.147632 0.142627 0.115049 -0.143523 -0.024741 -0.499662 0.147461 0.027551 0.222675 0.217284 0.073954 -0.204953 -0.287387 0.068432 0.266826 0.118803 -0.091838 -0.767206 -0.126067 0.073413 -0.278483 0.045251 -0.218369 0.070277 0.116559 -0.217357 -0.412465 -0.163498 0.103871 0.049065 0.195789 -0.230071 -0.250606 -0.087013 0.008460 -0.109676 -0.220336 0.035007
我 0.010265 -0.118835 -0.132559 0.375554 0.074481 0.126875 -0.040954 0.495149 -0.278509 0.276457 -0.002244 0.042921 0.004106 -0.204384 -0.117780 -0.033913 -0.009877 0.297006 -0.287403 0.143517 0.294764 0.078190 0.110774 0.266061 0.258034 0.123201 -0.177163 0.090029 -0.099381 -0.022778 0.359492 -0.365499 -0.059663 0.192191 -0.050812 -0.191412 -0.034741 -0.050640 0.106408 0.054709 -0.143900 -0.112998 -0.391303 -0.536164 -0.010061 -0.299557 0.325338 0.076920 -0.195712 -0.194168 -0.230937 -0.505226 -0.260064 -0.259402 -0.203449 -0.268917 -0.072964 0.161419 0.124281 0.401070 -0.092559 -0.388935 -0.088901 -0.142062 0.668702 0.033350 -0.047862 -0.703455 0.251090 -0.066864 0.049322 0.386841 0.288194 0.020845 0.093124 0.160093 -0.023794 0.324768 -0.187816 -0.064286 -0.324954 -0.110276 -0.058299 -0.127922 0.168481 0.337901 -0.023915 -0.433699 -0.270508 0.129317 0.195635 -0.301832 -0.108222 0.037422 -0.424239 0.216936 -0.006322 -0.132645 0.005299 -0.456900
成 0.169905 0.308682 -0.284416 0.211006 0.457327 0.377674 0.128271 -0.171814 -0.145720 0.137799 0.144210 0.410193 0.031751 -0.029356 0.317781 0.382894 0.145409 0.013191 -0.197391 -0.060398 0.066069 0.007153 -0.031302 -0.505472 0.181721 -0.178996 -0.099004 0.065010 -0.209450 0.320951 0.194415 -0.000596 -0.030670 0.574022 0.299089 -0.288808 -0.134926 -0.193253 -0.465707 -0.301813 0.072167 -0.238280 -0.283401 -0.282587 -0.533896 0.303841 0.061886 0.019357 0.020999 -0.195221 -0.327826 -0.396631 0.203020 -0.094870 -0.140003 0.056110 -0.044264 -0.139538 0.068262 -0.087121 -0.236238 0.232662 0.202143 -0.002110 0.011322 -0.395800 0.226851 -0.132880 0.586916 0.390643 -0.135469 -0.005954 0.027995 -0.184759 0.047376 -0.192592 0.300792 0.215831 -0.040977 -0.084785 -0.312093 -0.069527 0.119506 0.057466 -0.055599 0.544876 0.301945 0.338336 -0.196358 -0.426435 -0.039599 -0.495977 0.170922 -0.159351 0.045619 0.082945 0.240423 -0.079683 0.042557 -0.091991
场 -0.309702 0.011709 0.076782 0.296510 0.236126 -0.123268 -0.107497 0.236864 -0.358458 -0.520534 0.187925 -0.009285 0.083354 0.154997 0.003749 0.003536 -0.338320 0.217680 0.147765 0.308660 -0.217685 -0.059757 -0.316882 0.061744 0.492680 0.092780 -0.036789 -0.130866 0.034878 0.409520 0.263312 0.282824 -0.082977 0.287967 -0.142088 -0.311659 -0.228488 -0.348401 -0.532361 0.194732 0.202885 0.187780 -0.501775 -0.102137 -0.148462 0.336816 -0.126190 0.082438 -0.168335 0.097668 -0.116553 -0.531091 0.290684 -0.008621 -0.002698 0.052177 0.158582 0.144893 -0.186895 0.117451 -0.151844 0.409936 -0.135446 0.077682 0.398409 0.222025 0.517935 -0.334140 0.135724 0.527191 0.036033 -0.530146 -0.119650 0.142341 -0.089568 0.144567 0.196677 0.329696 0.071330 -0.206998 -0.309753 -0.007799 0.243089 -0.216502 -0.123532 -0.053023 -0.271324 -0.095830 0.006291 -0.185065 -0.107307 -0.002837 0.550595 -0.261653 -0.088309 0.417555 -0.300176 -0.092908 0.027364 0.046545
要 -0.011482 -0.344330 -0.274938 0.126518 -0.095867 -0.303322 0.065341 -0.201240 -0.576510 -0.136788 0.065642 -0.082106 0.082920 0.153896 0.206362 -0.109055 0.377167 0.209417 0.114179 -0.118444 -0.327644 0.098112 -0.227070 -0.085808 0.097147 0.155341 -0.084285 -0.199433 0.201523 -0.054296 0.330312 0.042136 0.204903 0.440314 0.429156 -0.302000 0.010662 -0.027707 0.108848 0.204756 -0.076709 0.100647 -0.174681 -0.363123 -0.213481 -0.239845 -0.218973 0.040939 -0.107002 0.105137 -0.289562 -0.213682 0.256252 -0.241931 0.182199 0.023130 -0.243070 0.063952 -0.152315 0.196125 -0.535308 -0.237798 -0.279849 0.040748 0.476804 0.067083 -0.063706 -0.433349 0.059332 0.023887 0.172737 0.148709 0.178181 -0.059352 -0.126975 0.173477 0.077899 0.260938 -0.017480 -0.122561 -0.089865 0.383083 0.107553 0.055833 0.150109 0.255615 0.225920 -0.207714 -0.321969 -0.073692 -0.034839 -0.222826 0.358223 -0.274451 -0.136815 0.118307 0.081066 0.068308 -0.247355 -0.245266
后 -0.118174 -0.144078 -0.174826 -0.003194 0.166802 -0.034541 -0.001987 -0.171746 -0.426335 0.440047 -0.274958 0.099038 -0.111514 -0.086464 -0.295200 0.444938 -0.045917 0.183618 0.139112 0.142731 -0.433280 -0.164363 0.296748 0.119419 -0.035247 -0.145237 -0.134527 -0.253196 -0.150734 0.211826 0.171576 0.304226 0.120827 0.225053 -0.046019 0.081798 0.115681 0.111969 -0.026263 -0.199760 0.146384 -0.248078 -0.415787 -0.251990 -0.105078 -0.045526 0.218783 -0.177346 -0.252001 0.060686 0.120596 0.025103 -0.221572 -0.123640 -0.109122 0.363590 -0.296751 -0.142569 -0.007479 0.128782 -0.465964 0.020913 -0.174694 -0.136761 0.432055 0.102082 -0.028484 -0.218259 -0.024112 0.260985 0.016426 -0.135510 -0.117243 -0.153983 0.072347 0.147592 0.078406 0.132766 -0.007282 -0.404706 -0.248577 0.064614 -0.338317 0.079822 0.114257 0.067153 0.065816 0.098459 -0.366550 -0.173235 -0.231043 -0.448786 0.486696 -0.054117 0.234116 0.196051 -0.000142 0.060412 -0.360099 0.030608
生 -0.168457 0.243144 -0.163022 0.063735 0.250961 -0.204893 -0.040243 0.326821 -0.244343 0.355129 0.275597 0.453549 -0.025397 -0.120112 0.315254 0.076912 -0.169506 0.104076 -0.140889 0.010852 -0.286550 0.063372 0.268060 -0.179063 -0.140478 -0.031159 -0.168268 -0.119174 -0.195099 0.189236 -0.245876 -0.091055 -0.016326 0.103333 -0.043492 -0.027313 -0.107108 0.163779 -0.397010 0.380468 -0.199514 -0.191178 0.186957 -0.101902 -0.407400 0.084217 -0.047794 -0.086372 -0.301016 0.628930 -0.281047 -0.021896 -0.137073 -0.493255 -0.127721 0.133583 0.095282 -0.227515 0.197985 0.239799 0.005695 0.250302 -0.499550 -0.011885 0.496445 -0.165516 -0.278380 -0.060337 0.255275 -0.028192 0.016733 -0.282707 -0.006534 -0.148812 -0.394555 0.057311 0.455180 -0.058681 0.158850 -0.229584 0.199486 0.488557 -0.062684 0.212463 0.203135 0.833379 -0.357320 -0.419047 -0.126727 -0.248930 0.144512 -0.230522 0.288042 0.289136 -0.155604 0.169246 -0.072360 -0.385905 -0.089862 -0.390861
能 0.223636 0.013899 -0.352718 0.177477 -0.158228 0.020131 0.127447 -0.402244 0.024602 0.085334 -0.111506 0.049881 0.011930 0.104301 0.240519 0.134781 0.221064 -0.255579 0.003097 0.262429 -0.366973 -0.075922 0.144818 -0.025533 0.227143 0.477044 -0.203049 0.310133 -0.182016 0.450771 0.023110 0.043505 0.231648 0.255343 0.156770 0.117284 -0.049232 0.218217 -0.052968 0.021350 0.249119 -0.098462 -0.350600 -0.134408 -0.055721 -0.290223 -0.077734 0.425481 0.152810 -0.222582 -0.300598 -0.472565 0.046085 -0.144188 0.033929 -0.005490 -0.167381 -0.038656 0.176998 -0.029864 -0.364995 0.066217 -0.176423 0.068314 0.165682 -0.330298 0.226135 -0.410084 0.409354 0.055369 0.338145 0.122278 -0.081589 -0.614297 -0.528988 0.414533 0.141185 0.173285 -0.097575 -0.367276 -0.186675 0.107596 -0.150668 -0.009777 -0.102057 0.509166 0.046529 -0.199446 -0.384846 0.138168 0.091255 -0.266462 0.132029 -0.261739 -0.075914 0.069985 -0.100102 -0.134382 -0.136160 -0.171921
他 0.004379 -0.049737 -0.083973 0.038549 0.202896 -0.124983 0.112205 0.184412 -0.167464 0.195093 0.109211 -0.257692 0.218528 -0.101225 0.041336 -0.018755 -0.052817 0.367585 -0.179347 0.186233 0.153432 0.109193 -0.022079 0.131045 0.076553 0.023260 0.101469 0.019825 -0.498879 -0.098789 0.223860 -0.200927 0.138923 0.463124 0.006588 -0.068520 0.073971 -0.081709 0.029559 0.203092 -0.161249 -0.142045 -0.382068 -0.550808 0.184645 -0.140618 0.134449 0.074494 -0.223476 -0.243268 -0.386398 -0.325307 -0.561159 -0.282638 -0.068407 -0.148600 0.254176 -0.003701 0.154802 0.079843 -0.029227 -0.060426 0.093681 -0.022426 0.508209 0.150785 0.023226 -0.638094 0.073229 0.085403 -0.220043 0.191632 0.194834 -0.198053 -0.063666 0.259205 -0.037270 0.251865 -0.056052 -0.289635 -0.127700 0.027806 -0.236150 -0.173339 0.110544 0.320814 -0.052110 -0.072127 -0.127406 0.026532 0.164286 -0.165548 -0.153802 -0.012482 -0.085689 0.376957 0.191461 -0.142627 -0.066100 -0.528531
作 -0.105393 -0.383492 0.140380 0.309946 -0.130430 -0.151558 0.116333 0.006519 -0.325067 -0.081656 -0.048117 -0.176952 0.237373 0.293277 -0.358370 0.172476 -0.270025 0.035749 0.175186 -0.186349 -0.199136 -0.173679 0.520896 -0.178718 0.495898 0.299631 0.162652 -0.281817 -0.335995 -0.038317 -0.118180 -0.010566 -0.081386 0.207410 0.148744 0.037797 -0.628278 -0.110179 -0.076526 0.224164 -0.266195 -0.340088 0.181581 -0.116936 -0.405227 0.290020 -0.133191 -0.191258 -0.084812 -0.069766 -0.510079 -0.225274 0.099752 -0.246517 -0.002811 -0.076325 0.094452 0.197397 0.279417 0.004218 -0.714149 0.122211 -0.051104 0.089547 0.489965 -0.453893 -0.046849 -0.389084 0.196681 0.245149 -0.054898 0.202653 0.141783 0.053398 -0.060315 -0.036938 0.448802 -0.098937 0.179591 -0.084478 -0.131814 -0.022195 -0.100885 -0.109639 -0.474805 0.779062 0.617612 0.161912 0.227751 -0.391287 0.017320 0.128826 0.046058 0.039553 -0.145982 0.101606 0.062666 0.218655 -0.459070 0.039573
家 -0.314210 -0.068781 -0.199709 0.343172 0.248924 -0.338143 0.047539 -0.101594 -0.014044 0.047262 0.270159 -0.095577 -0.037055 -0.229963 -0.114263 0.094366 -0.195668 0.019091 -0.542428 -0.072876 -0.070326 0.047427 -0.208322 0.309343 0.377627 -0.126775 -0.102150 -0.163062 -0.195547 -0.259241 -0.128211 0.139676 0.251416 -0.166897 0.462216 -0.015391 0.063208 -0.018311 -0.007449 -0.097633 -0.047322 0.025771 0.076040 -0.281116 -0.141653 -0.057669 -0.129127 0.080218 -0.621509 0.146398 -0.048837 -0.504923 -0.121130 0.137089 -0.109392 0.188541 0.110682 0.007983 0.220626 0.438665 -0.029164 -0.136214 -0.360704 -0.080651 0.207397 0.081072 0.114161 -0.337497 0.019236 -0.055873 0.061402 0.074282 0.359172 -0.394218 0.173597 -0.016654 0.099313 0.137471 0.195868 -0.227962 -0.541536 -0.072716 0.152157 -0.169069 0.155019 0.533239 -0.192331 0.077007 -0.213844 -0.033564 0.072510 -0.537838 0.003982 0.030474 -0.114645 0.134260 -0.205094 0.182524 -0.245951 -0.383846
们 -0.304439 -0.131223 -0.073059 0.490634 -0.086904 -0.101445 0.119554 -0.002344 -0.174627 0.261211 -0.125851 0.091724 0.179817 -0.061404 0.170341 0.043583 0.044286 0.197774 -0.184394 0.270437 0.092575 0.189647 0.043794 -0.077334 0.243401 0.314215 -0.353499 -0.237497 -0.214695 0.345655 0.223549 0.025954 0.154977 0.220980 -0.072007 -0.354977 -0.027924 -0.062047 -0.017678 0.181283 0.138071 -0.204315 -0.322124 -0.510734 -0.109570 -0.102282 0.209752 0.168141 -0.001362 -0.237128 -0.230302 -0.188802 -0.222142 -0.384571 -0.026661 -0.011420 -0.019538 0.110269 0.101449 0.089464 -0.218100 -0.078441 -0.285712 -0.295816 0.425531 0.093798 -0.041591 -0.491028 0.088286 0.063792 0.084258 0.331619 0.473202 0.026026 0.159298 0.111733 -0.012198 0.299782 0.169908 -0.157482 0.147909 0.040037 -0.068093 -0.396042 0.089906 0.280810 -0.149410 -0.310475 -0.034010 -0.104119 0.163976 -0.033565 -0.016154 0.110183 -0.235286 0.508064 -0.222390 -0.139566 -0.276180 -0.426757
经 0.293505 -0.101983 -0.238689 0.255668 0.183578 -0.059706 0.142785 0.235944 -0.158117 -0.037048 0.145486 -0.038607 0.367941 -0.348192 0.142283 0.169576 -0.738599 0.074701 0.349956 -0.229495 -0.193268 0.191252 0.186363 0.202184 0.286848 0.127104 -0.002828 -0.314404 -0.513551 0.502805 -0.260984 -0.283742 -0.064576 0.139619 0.189227 -0.352169 0.455842 -0.294162 -0.061895 -0.203037 -0.155235 -0.131185 -0.228309 -0.138682 -0.259316 -0.129711 0.160174 0.204397 0.092900 0.111178 -0.121585 -0.566058 -0.001371 0.245211 -0.076695 -0.176445 0.205532 -0.024805 -0.257616 0.276493 0.052703 0.257361 -0.209386 -0.108841 0.130872 0.177182 0.000944 0.072496 0.102166 0.177078 0.065390 0.320112 -0.331309 -0.402939 -0.016300 0.051326 0.436058 0.450689 0.262620 0.227084 -0.170464 -0.104639 0.173277 -0.211662 0.316720 0.275702 0.237644 0.181301 -0.065238 -0.278232 -0.021273 -0.264912 0.062493 -0.127547 -0.204451 -0.004832 -0.024093 -0.459902 -0.911437 -0.047508
月 0.398040 -0.105866 0.359761 0.087788 0.315271 -0.248864 0.188184 0.133431 -0.659480 -0.114659 0.029944 0.304188 0.107080 -0.442918 -0.468497 0.114048 0.339512 -0.153172 0.119149 0.034517 0.271274 -0.018918 0.051281 -0.012326 0.031916 0.364656 -0.339306 -0.182036 -0.181010 0.102188 -0.601705 -0.058864 -0.253532 0.637460 -0.195907 0.299128 -0.278321 -0.101422 -0.245723 -0.489266 -0.199453 -0.188171 -0.386584 -0.178505 -0.235342 0.107577 -0.073107 -0.080579 -0.138456 0.303560 0.245336 -0.240479 -0.226666 0.067179 0.101394 0.103566 0.217143 -0.201717 0.078818 0.423540 -0.141306 0.043455 0.301750 -0.442670 -0.094487 0.057288 0.029237 -0.029576 0.195612 0.170247 0.366992 0.265319 0.145334 -0.263061 0.033137 -0.122862 0.148650 0.481427 0.376382 -0.158905 -0.334912 -0.367140 0.424695 0.259763 0.213207 0.381148 0.348637 -0.602626 -0.268503 -0.331711 0.065251 -0.713694 0.001680 0.182395 0.589522 0.517438 -0.066907 0.136034 -0.180965 0.409225
前 0.155123 -0.067150 0.142434 0.314335 0.027362 0.239592 0.311328 -0.448962 -0.343258 0.266867 0.019415 0.020968 -0.059171 -0.176302 -0.227536 0.159944 -0.156371 0.007819 0.213409 0.126167 0.112134 0.117661 0.093573 0.108777 0.543911 0.151327 0.062164 -0.130418 -0.115641 0.040490 0.044890 -0.280590 0.051193 0.379144 0.138216 -0.448458 -0.192166 0.066088 -0.377609 0.056267 -0.030025 -0.067010 -0.419365 -0.129470 0.010154 -0.172252 -0.038513 0.060735 -0.446894 0.013640 0.025793 0.095479 -0.276394 -0.237948 -0.081879 0.249635 -0.183702 -0.137139 0.119452 0.339008 -0.335491 0.196066 -0.427980 0.010074 -0.126682 0.166316 0.204558 -0.038124 -0.059898 0.416570 0.064925 0.141360 -0.130123 -0.233462 0.033534 0.279559 -0.092065 0.148218 0.287895 -0.474588 -0.171640 -0.189381 -0.020652 -0.225508 0.317601 0.131385 -0.022485 0.018639 -0.207230 -0.286837 -0.037067 -0.456811 0.358080 0.177922 -0.142161 0.010324 -0.213790 0.037153 -0.310671 0.175377
高 0.036952 -0.102283 -0.093678 0.439653 0.360413 -0.323510 0.302164 -0.138073 -0.132461 -0.192701 -0.211531 0.053786 -0.111167 -0.146261 -0.150837 0.612414 -0.078256 -0.486783 0.286913 0.368184 -0.050307 -0.231321 -0.021775 -0.256348 0.272852 0.210108 -0.434585 0.514245 0.156618 -0.191633 0.167596 -0.286880 0.023920 0.186450 0.332611 -0.437706 -0.209542 0.172571 -0.187519 0.275817 -0.248484 -0.267607 -0.085116 -0.319712 -0.348049 0.122607 -0.251405 0.397054 -0.201312 0.211690 -0.479453 -0.095984 -0.057145 0.285106 -0.024107 -0.019912 -0.060212 -0.265793 -0.153213 0.400360 0.184915 -0.127300 -0.291388 -0.061437 0.040600 0.044753 -0.005663 -0.341531 0.074235 0.185033 -0.218881 0.241515 -0.099390 -0.041688 -0.390096 -0.211939 -0.098923 -0.243252 -0.281267 -0.200924 -0.494641 0.495558 0.070842 -0.178823 0.104720 -0.208293 0.147038 -0.072094 0.025149 -0.155464 0.059886 -0.500573 0.497351 0.090569 0.191521 0.103751 -0.263834 -0.291291 0.056800 0.189497
资 -0.210677 -0.108262 -0.031784 0.656585 0.121736 -0.500463 -0.383928 -0.170251 -0.321165 -0.432872 0.032473 0.021323 0.044521 -0.189808 -0.142390 0.012197 -0.046865 0.150101 0.167168 -0.056137 -0.541523 0.140483 0.120319 -0.047335 0.747734 0.020924 -0.204778 -0.273706 -0.640853 -0.006792 -0.040888 -0.269314 -0.093051 0.720351 -0.036367 -0.033894 0.323188 -0.107888 -0.354705 0.084941 0.134619 -0.193558 -0.694313 0.145958 0.251195 0.041986 -0.457060 0.043321 0.087437 0.027450 -0.019021 0.018626 -0.006682 -0.266596 0.335420 -0.132736 0.021301 -0.295331 -0.078291 -0.076452 -0.173663 0.362970 -0.126920 0.420402 0.382355 -0.625246 0.581763 -0.252023 0.336608 0.247762 0.015132 0.502495 0.136012 -0.411195 -0.656295 0.226252 0.449085 -0.051424 0.345345 0.481715 -0.219152 0.292394 -0.016298 -0.077851 0.327823 0.456763 -0.178031 0.088882 -0.173198 -0.138068 -0.586061 -0.510732 0.461318 -0.029633 -0.000339 -0.872460 -0.424820 -0.197045 0.017118 -0.435783
于 -0.053347 -0.102371 -0.165800 0.077436 0.393904 -0.359616 -0.024247 -0.160377 -0.215424 0.043436 -0.064516 0.131149 -0.022915 0.204047 -0.105716 0.323220 0.006346 0.147747 0.371493 0.047021 0.160734 -0.140284 0.342848 0.108869 0.262352 0.259963 -0.064080 -0.059050 0.119736 0.087465 -0.233843 -0.173835 0.151742 0.611953 0.427066 0.148334 0.139872 -0.322995 -0.017894 0.015482 -0.067074 0.070290 -0.207431 -0.314090 0.213556 0.048889 -0.372622 0.105741 -0.322627 -0.032869 -0.459914 0.122754 0.126400 -0.291579 0.308173 0.226960 0.230178 0.304263 -0.160092 0.114874 -0.163561 0.191054 0.014184 0.227108 0.036624 -0.093357 0.145733 -0.061811 -0.171112 0.139828 0.545508 -0.006065 -0.177220 -0.123978 -0.288007 -0.075515 0.391070 0.041019 0.311742 0.048884 -0.264731 -0.319073 -0.214712 -0.180476 0.323349 0.059203 0.168601 0.041209 0.199436 -0.047593 0.292986 -0.356740 0.019246 0.192052 0.191635 0.142300 0.021927 -0.264234 -0.279761 -0.142673
多 0.149403 0.124455 -0.145358 -0.101103 -0.017986 -0.205872 -0.113907 -0.356824 -0.147423 0.371105 0.150858 0.083479 0.116685 -0.252144 -0.269569 0.086153 0.197172 -0.144452 0.163879 0.170033 -0.362689 0.196734 -0.125956 0.022206 -0.060063 0.115481 -0.110752 -0.039652 -0.265203 0.281273 -0.186639 0.384363 -0.021894 0.195807 0.678482 -0.104520 0.125450 0.330704 -0.072307 0.371709 -0.149943 -0.373845 -0.021886 -0.303577 -0.097183 -0.316994 0.195595 -0.065292 -0.019867 -0.004709 -0.068714 -0.170308 -0.042697 -0.313025 0.002196 -0.097045 0.432045 -0.429632 -0.249374 0.164780 0.011980 0.126125 -0.069680 0.243835 0.263214 -0.307134 -0.005715 -0.552907 -0.001880 0.408151 0.257602 0.125275 0.011872 0.170929 0.021501 0.204452 0.206124 0.222994 -0.043567 -0.324892 -0.481002 0.118488 0.326604 -0.223756 0.101337 0.147722 0.602341 -0.004432 -0.156659 -0.247993 0.052677 -0.136704 0.097156 -0.065677 -0.274524 -0.096684 0.031384 -0.192942 -0.113434 -0.114873
分 0.066821 0.069832 -0.057672 0.142410 0.051176 -0.046056 -0.581222 -0.048435 -0.017881 -0.179318 0.117758 -0.182535 0.228005 0.112523 -0.138364 0.350670 0.182102 -0.193633 -0.066500 0.341378 0.067247 -0.034350 0.237461 -0.161503 0.304535 0.303146 -0.410045 -0.559403 -0.239250 0.177847 -0.335547 -0.106912 0.154141 0.359599 0.235988 -0.213782 0.346076 -0.104806 -0.220786 -0.094922 -0.116647 0.353492 -0.514207 -0.041402 0.187465 -0.131498 -0.229022 -0.031089 0.029815 0.391980 -0.152472 -0.087257 0.144800 0.174272 -0.308912 0.082353 0.133406 0.222854 -0.247924 -0.036624 -0.349316 0.395586 0.018327 0.326576 0.355442 -0.001003 -0.340972 -0.167828 0.006771 0.449287 -0.208075 0.143607 -0.114650 -0.367232 0.274832 -0.304475 -0.238410 0.043998 0.216349 -0.268742 -0.074112 0.234219 0.226107 0.135366 0.103916 0.328812 -0.151908 -0.226022 -0.009977 0.264233 0.018678 -0.757859 0.437081 0.048196 0.201729 0.270178 0.356209 -0.095714 -0.290278 0.051917
方 0.100422 -0.541315 -0.107092 0.371043 -0.061610 0.019173 -0.161307 -0.605585 -0.384363 0.014778 -0.187694 -0.161811 0.050874 -0.547979 -0.131489 0.257039 0.375453 0.403116 -0.081735 0.030352 -0.133765 -0.033066 -0.230536 -0.232646 0.266050 -0.017025 -0.020745 -0.229415 -0.006474 0.022966 -0.193832 -0.372468 -0.214387 0.170220 0.190447 0.271443 0.212357 0.052257 -0.296221 0.070025 -0.069352 0.278952 -0.332512 0.012366 -0.510012 0.156752 -0.390969 0.080924 -0.002804 -0.137125 -0.175215 -0.245122 0.380363 0.018840 0.002177 -0.053675 -0.089064 -0.070525 -0.086910 0.053020 -0.044692 0.664881 -0.150553 0.130486 0.253671 0.444215 -0.136326 -0.661297 -0.560784 0.008127 0.032395 0.367613 -0.089024 -0.229585 -0.098520 0.128910 -0.000396 0.225372 -0.065948 -0.308673 0.063990 0.449201 0.368075 -0.076555 -0.135220 0.494072 0.449879 0.364333 -0.166021 -0.164919 0.181962 -0.381073 -0.284351 0.102443 0.285863 0.392009 -0.253005 -0.094776 -0.165392 0.112916
下 0.043365 -0.187873 0.049833 0.202136 0.311774 0.012725 0.026927 -0.037881 -0.360356 0.230657 -0.132985 0.129944 0.095086 0.257627 -0.241047 0.496880 -0.049348 -0.033457 -0.080206 -0.030070 0.146850 -0.451205 0.235902 0.133767 0.205821 -0.020248 -0.185669 -0.156045 0.293839 0.455477 0.114062 0.031455 -0.000098 0.316611 0.219056 0.010585 -0.042973 -0.053909 -0.416047 -0.091415 -0.209526 0.098802 -0.459826 0.065120 -0.195694 0.057376 -0.428477 -0.168155 0.018229 -0.015748 0.110362 0.436532 -0.179855 -0.144175 -0.214596 -0.230513 0.026995 -0.432901 0.050813 0.176478 0.009923 -0.081282 -0.069216 0.062373 0.038630 0.038875 0.031691 -0.470268 0.152173 0.348407 0.291947 -0.061777 0.144407 -0.244226 0.271020 0.098013 -0.227353 0.221083 -0.015413 -0.297091 -0.194491 0.363236 -0.615049 -0.217623 0.233746 -0.022109 -0.038305 -0.229993 -0.225518 0.122940 0.076932 -0.807264 -0.059160 0.084830 -0.066364 0.002519 -0.070831 -0.084804 -0.309052 -0.106130
者 -0.091603 -0.099467 0.082517 0.367484 0.085185 -0.256055 -0.059589 0.493814 -0.446952 -0.077829 -0.217056 -0.195247 0.431424 -0.141293 -0.013910 0.154724 -0.179659 0.324723 0.459715 0.395297 0.261735 0.391554 -0.136492 -0.017726 0.187684 -0.247736 0.211459 0.057378 0.033570 0.152247 -0.112244 0.068397 -0.252684 0.867733 -0.290317 -0.285904 -0.161296 0.268545 0.438087 -0.365024 0.102297 -0.066911 -0.270137 -0.218982 -0.265112 0.174026 0.240693 -0.012561 -0.340101 0.212385 0.097406 -0.188293 -0.291027 -0.410600 0.025796 0.555886 0.381640 0.228457 -0.531100 0.220902 -0.231295 0.224214 0.109700 0.246325 0.184750 0.123407 0.071624 -0.132322 0.171573 -0.406495 -0.024529 -0.017945 0.140747 -0.263251 -0.126157 0.067337 -0.190459 0.137093 0.343110 -0.090431 -0.799297 0.224399 -0.425713 -0.231822 -0.019616 0.742862 -0.047367 0.025326 0.299281 0.063705 0.027427 -0.726997 -0.338885 0.500952 -0.209077 0.272125 -0.245536 0.503790 0.210862 -0.102151
区 0.333569 -0.275982 -0.237654 0.349203 -0.469444 -0.538453 0.417730 0.085270 -0.325028 0.060788 0.104101 0.181998 -0.058006 -0.056809 -0.138307 0.281195 -0.051892 -0.080513 -0.243207 0.454863 -0.080945 -0.499070 -0.216688 -0.479793 0.414027 -0.112774 -0.234601 -0.584837 -0.521894 0.426716 -0.269048 0.375714 -0.337236 0.224123 0.348656 -0.242057 -0.201937 -0.330939 -0.535563 -0.081805 0.248155 -0.076612 -0.197271 0.020301 -0.228816 -0.011472 0.094468 0.297869 -0.445249 0.051140 -0.007827 0.301724 0.289695 0.199295 0.208095 0.071801 0.164599 0.589044 -0.304694 0.118395 -0.175076 0.035562 -0.328316 -0.225388 0.166695 0.387814 -0.135937 -0.155317 0.155008 0.176766 0.433318 -0.129308 -0.393598 0.259695 -0.222879 -0.123028 0.429650 0.144608 0.295885 -0.259608 -0.039414 0.085391 -0.037156 0.291165 -0.067019 0.093028 0.257937 -0.005620 -0.082393 0.141157 -0.080493 -0.443801 0.247703 0.179342 0.431660 -0.249136 -0.333746 0.275728 0.000279 -0.461294
现 0.173855 0.005663 0.063093 0.258245 0.141146 0.130050 -0.074502 -0.009452 -0.096251 -0.273030 -0.097434 -0.105409 -0.049845 -0.268946 -0.528763 -0.024747 -0.089174 0.209985 0.179670 -0.116383 -0.104095 -0.122609 0.018756 -0.087505 0.491053 0.131152 -0.017866 -0.200779 0.033902 0.394281 -0.226076 -0.333113 0.046690 0.258228 0.182832 -0.214604 -0.170410 0.198427 -0.151105 -0.044784 -0.126134 -0.369723 0.020371 0.032247 -0.290301 -0.047710 -0.259914 0.391046 -0.025798 -0.213103 -0.205775 0.075605 -0.399959 -0.434164 -0.194273 0.121182 0.172635 -0.044654 0.183835 0.100056 -0.081069 0.029079 -0.324783 0.140707 0.267739 -0.262600 -0.166980 0.015251 -0.014099 0.323279 -0.151850 -0.349287 -0.164631 -0.136005 -0.212406 0.144972 0.141599 0.487170 -0.036191 -0.159545 -0.043737 0.018330 0.316779 -0.134595 0.107697 0.017293 0.063196 0.082874 -0.297539 -0.219476 -0.160495 -0.060319 0.079750 0.008291 -0.045779 0.533837 -0.251917 -0.363926 -0.562791 -0.208428
开 -0.006075 -0.270504 0.073531 0.371394 0.105015 -0.253556 0.276314 0.320545 0.156477 0.082852 0.423317 0.410436 0.134168 -0.073123 -0.157129 -0.205689 0.171899 0.046363 -0.043131 0.109542 -0.249330 -0.373000 0.390128 0.105241 0.164334 0.081491 0.049262 -0.430433 -0.002580 0.444878 0.122300 0.091255 -0.334233 0.313537 0.181014 0.064466 -0.005461 0.335036 -0.366435 0.018473 -0.221219 0.035694 -0.094517 -0.309745 -0.236412 0.619941 -0.039414 0.288589 -0.127838 0.235461 -0.239193 -0.297547 -0.229942 -0.365942 -0.168909 -0.030763 0.093010 0.285705 0.389196 -0.024407 0.040007 0.118951 0.076620 0.245224 0.447984 0.479122 0.183293 0.052038 -0.260824 0.294174 0.089204 0.170009 -0.171922 -0.085320 -0.076495 0.182557 0.198591 0.343767 0.197404 -0.340065 -0.038065 -0.068958 0.259808 0.007068 0.652431 0.027621 0.140761 0.021824 -0.256270 -0.233601 0.120267 -0.326505 0.455023 -0.093461 -0.073212 0.108261 -0.237617 -0.278025 -0.361165 0.024336
本 -0.189439 -0.350601 0.080767 -0.136808 0.214337 -0.362667 -0.149538 0.085194 -0.423023 -0.053930 -0.093656 0.110727 0.414146 -0.370584 0.335136 0.331870 0.131733 -0.196318 0.026965 0.128552 -0.089489 0.156459 0.097936 0.338880 0.344507 0.202605 -0.454315 -0.148963 0.292199 0.131414 -0.692484 -0.361293 -0.207502 0.506594 -0.085786 -0.369022 0.362040 0.121691 -0.252701 0.296877 -0.376666 0.068702 -0.675387 0.134732 -0.081332 0.077892 -0.151371 -0.282254 -0.019078 -0.193639 -0.564005 -0.230777 0.030922 -0.039269 0.221546 0.221588 0.205093 -0.323245 -0.401645 0.136599 -0.136772 0.253312 -0.037158 0.224426 0.318166 0.125545 -0.053711 0.049950 0.150651 0.365553 -0.247363 0.047776 -0.060617 -0.374253 -0.188328 0.339248 0.093025 0.092104 0.477360 -0.534311 -0.193407 -0.028717 0.016748 0.144318 -0.209289 0.267376 0.154183 0.032449 -0.382713 0.051544 -0.416301 0.092289 -0.076737 -0.014005 -0.051149 0.202246 -0.535909 0.251894 -0.152848 0.003884
自 0.325318 -0.277677 0.071380 0.511526 0.070165 -0.510960 -0.162086 0.072854 -0.255462 0.192612 0.198725 -0.480075 0.180173 0.123332 0.345471 0.382433 0.251819 0.395225 0.143199 0.309140 -0.221999 -0.107287 -0.352999 -0.044984 0.491063 -0.044300 -0.195872 -0.207887 0.168235 -0.052771 0.010768 -0.255632 0.017899 -0.102948 0.299445 -0.045723 0.019994 0.104788 -0.392606 -0.038750 -0.208349 -0.438305 -0.613679 -0.571227 -0.120610 0.340865 -0.103415 0.278854 -0.150240 -0.225049 0.104877 -0.384928 -0.106961 -0.411310 0.212297 -0.104392 0.272089 0.127460 -0.120294 0.619818 -0.509203 0.133002 -0.131538 -0.106284 0.555127 -0.193357 0.379396 -0.121424 0.318364 0.095559 -0.201312 -0.061874 -0.100479 -0.258479 -0.358066 0.264355 0.229225 -0.258076 0.161622 0.366735 0.163710 0.113310 -0.369233 -0.040485 -0.059701 0.056442 0.272082 -0.116581 -0.095094 0.078626 0.390409 0.257573 0.379529 -0.010322 -0.116989 0.218323 0.523495 -0.135576 -0.513329 -0.069115
也 0.119352 0.100620 -0.201049 0.149318 0.114955 -0.095510 -0.090989 -0.085146 -0.069922 -0.003076 -0.123677 0.159273 0.186553 -0.016962 0.046671 0.050626 -0.100416 -0.063115 0.284677 -0.066849 -0.094189 -0.124328 -0.122284 -0.171141 0.232122 0.107025 -0.082877 -0.097062 -0.019705 0.265265 -0.121997 -0.116506 0.085589 0.215936 0.344728 0.118136 -0.120867 0.192274 0.066721 0.162628 -0.091317 -0.134163 -0.411003 -0.411427 0.087522 -0.213667 0.077567 0.182249 0.047142 -0.044317 -0.166487 -0.203622 0.006112 -0.190331 -0.172148 -0.014092 0.219561 0.049386 0.051728 -0.030521 0.031244 0.046643 -0.196049 0.062694 0.229929 0.038366 0.083771 -0.295958 -0.040896 0.176091 -0.030133 0.235432 0.096940 -0.186754 0.018532 0.128056 -0.166898 0.244986 0.170379 -0.228959 -0.187373 0.049854 -0.028779 -0.106088 0.179141 0.059335 -0.073915 -0.142510 -0.141274 -0.126116 0.135379 -0.140220 0.193598 -0.118268 -0.324658 0.325223 -0.014866 -0.036942 -0.150836 -0.328503
产 0.115753 -0.143258 -0.229735 0.457035 0.558965 -0.808941 0.191705 0.240938 -0.311210 -0.098477 0.422114 0.106269 -0.024703 -0.055083 -0.253356 0.295222 0.167167 0.274048 0.257138 -0.096413 0.384314 0.395880 0.142831 -0.026657 0.422053 -0.033691 -0.066947 0.295006 -0.163925 0.178274 -0.222880 -0.240918 -0.290610 0.228827 0.384895 -0.425067 -0.187931 0.068509 -0.173861 -0.392530 0.177350 -0.365826 -0.239574 0.209632 -0.276993 0.252070 -0.220027 -0.025861 0.053068 0.183401 -0.443293 0.002229 0.455761 0.520783 -0.060698 0.158926 -0.149065 0.077704 -0.002391 0.357079 -0.014502 0.542016 -0.300825 0.058954 0.439471 -0.365428 -0.085134 -0.220948 -0.083548 0.652078 0.552439 0.104008 -0.001386 -0.412077 -0.320557 0.167849 -0.129119 -0.264403 0.027929 -0.141235 -0.050725 0.097793 0.177935 0.328641 -0.020163 0.210822 0.174401 -0.161988 -0.254935 -0.289958 -0.450371 -0.214785 -0.021334 -0.362416 -0.164730 0.097928 -0.098154 -0.033789 -0.186114 -0.710506
过 0.119261 -0.232781 -0.206229 0.238608 0.060408 -0.109364 0.234919 -0.014355 -0.062995 -0.035250 0.178968 0.145113 0.005593 0.355647 -0.264082 0.008191 -0.086960 -0.022222 -0.104552 0.569836 -0.223299 -0.126498 0.060378 -0.106945 0.074536 0.373478 0.071585 -0.181361 -0.000522 0.508164 0.024108 -0.326881 -0.149015 0.069416 0.219077 0.109118 -0.299313 0.009727 -0.081800 0.037751 0.221542 -0.225640 -0.563225 0.178902 -0.265785 -0.253667 0.077200 0.119275 0.065892 0.072706 -0.122207 -0.242025 -0.064515 0.039937 -0.430505 0.143396 -0.048164 -0.200355 -0.307593 0.317546 0.294508 -0.078816 -0.083582 0.421085 -0.217922 0.220235 0.215144 -0.563361 0.057809 0.059737 0.339448 0.358459 0.367895 0.021483 0.161941 -0.028226 0.320766 0.536740 0.273475 0.066651 -0.365429 0.396552 -0.026168 0.068090 0.409977 0.131380 0.246732 0.186381 -0.070117 0.043653 0.031028 -0.056000 0.227789 0.263266 -0.048890 0.353880 -0.113806 -0.064425 0.062564 0.073072
进 -0.059666 -0.253971 -0.221467 0.382870 0.168943 -0.080206 0.363732 0.125876 0.024091 -0.014880 -0.289377 -0.050195 -0.337822 0.142841 -0.254746 -0.167244 0.052103 -0.140060 0.041038 0.475817 -0.319682 -0.131761 0.446460 0.167010 0.468780 0.192592 -0.099636 -0.245249 0.121174 0.136135 -0.171161 0.272307 0.148811 -0.001655 0.051231 -0.459063 0.045052 0.283542 -0.186932 -0.306314 -0.165516 -0.034138 -0.336529 0.164433 -0.556294 0.175838 -0.406458 -0.225420 0.107064 0.059605 -0.150296 -0.241297 0.221164 -0.360670 -0.199798 -0.028597 0.125803 -0.250064 -0.218665 0.011908 0.239387 0.301732 0.054792 -0.101474 0.681090 0.385741 0.214974 -0.338308 0.215727 0.515938 0.123311 -0.084488 0.115726 -0.079289 0.122902 0.307333 -0.147316 0.096379 0.292428 0.004984 -0.212462 0.237211 0.067417 0.181060 0.152491 0.104715 0.216332 0.137531 0.012214 0.093066 0.212246 -0.171885 0.420533 -0.163146 0.499386 -0.150453 0.119726 -0.264568 -0.228285 -0.419411
新 -0.273639 -0.218416 0.148778 0.143790 0.055382 -0.385606 0.317928 0.187817 -0.245417 0.350604 0.040451 0.452813 0.220032 -0.254130 -0.149518 0.201393 -0.027889 -0.160877 0.334903 -0.089818 -0.468683 -0.400258 0.119891 0.131075 0.327731 0.033760 -0.142145 -0.220689 0.061690 0.272990 -0.104298 -0.039907 -0.284342 0.515616 0.252090 0.047683 -0.138423 0.040324 0.094748 -0.360303 -0.102505 -0.116535 0.281883 -0.077849 0.064775 0.317991 -0.399465 0.135424 -0.214377 -0.190466 -0.081287 -0.131545 0.219311 -0.184486 -0.087726 0.158006 -0.007272 -0.091196 -0.201641 0.369994 -0.342644 0.317541 -0.277950 -0.035572 0.321582 -0.274106 -0.083380 -0.240192 -0.044100 0.023943 0.064194 0.033612 -0.092113 -0.121132 -0.299456 -0.090485 -0.192952 -0.297934 0.231646 -0.168462 -0.410219 0.225200 0.244698 0.211177 0.099611 0.102451 0.288668 0.016569 -0.681108 -0.235123 0.098332 -0.145166 -0.069897 -0.112987 0.015111 0.054990 0.160094 0.157417 -0.314811 0.292289
可 0.327171 -0.141982 -0.147666 0.249379 -0.031576 -0.172239 -0.151805 -0.161416 -0.159724 0.311547 -0.251127 0.226346 0.124542 0.119516 -0.317771 0.211046 0.049153 0.293201 0.112202 0.386534 -0.179695 -0.043495 -0.176324 0.094217 -0.318548 0.269551 0.023165 0.043795 -0.092287 0.153157 -0.329596 0.197961 0.011956 0.335978 0.490519 -0.263174 -0.030371 0.453223 -0.281166 0.198129 0.253332 -0.134582 -0.256192 -0.336767 -0.022523 0.129813 0.087977 0.077269 0.059892 -0.212149 -0.142931 0.052470 -0.132656 -0.045909 -0.032462 0.295006 -0.120696 0.134630 0.208686 0.063785 -0.262775 0.248453 0.003697 -0.054174 0.428840 -0.064644 0.266004 -0.339278 0.262944 -0.019501 0.179985 0.319809 -0.182922 -0.327015 -0.152902 -0.060150 -0.310304 0.343887 -0.187026 -0.075482 -0.341342 0.288618 -0.124119 -0.045430 -0.152721 0.144330 -0.208414 -0.100346 -0.540081 0.214684 0.241085 -0.143432 0.107323 -0.120799 0.008407 0.370404 0.106078 -0.263743 -0.035723 -0.367545
将 0.090853 -0.080773 -0.156767 0.149955 0.237021 -0.086990 0.323432 -0.113124 -0.255390 -0.053014 -0.010521 0.097083 -0.073401 0.003506 -0.032032 -0.100132 -0.004730 0.131129 0.097426 0.204812 -0.015174 -0.174251 0.140666 0.011219 0.090587 0.349431 0.065614 -0.282269 0.084446 0.261682 0.037648 0.131091 -0.049212 0.357495 0.235866 0.062477 0.016354 -0.091696 -0.105730 -0.152001 -0.149869 -0.179524 -0.544359 -0.223917 -0.045759 0.017681 -0.005907 -0.043865 -0.140399 -0.080959 -0.281886 -0.181101 -0.226627 0.092187 -0.072168 0.322970 0.033081 0.160937 0.124599 -0.132906 -0.120795 0.128350 -0.040295 -0.096138 0.305140 0.210172 0.100936 -0.133796 -0.074899 0.344513 0.140608 0.075494 -0.241228 -0.290747 0.060245 0.017958 -0.126803 0.057876 0.116530 -0.192528 -0.233944 0.100704 -0.212244 -0.154850 -0.113378 0.187085 0.088852 -0.158873 -0.278540 -0.285956 -0.101570 -0.106314 0.417043 -0.086932 0.189984 0.069789 -0.129441 -0.043116 -0.031921 -0.126947
就 0.017291 0.195671 -0.057207 -0.045027 -0.206851 -0.056459 -0.054133 0.264851 -0.058318 0.027701 -0.225163 0.199749 0.185083 -0.007379 -0.085237 0.139073 0.033621 0.025583 0.384643 0.109944 -0.105774 -0.035557 0.077148 -0.125182 0.283535 0.061367 -0.061215 -0.009040 0.058873 0.284003 0.025321 -0.193226 -0.011663 0.101846 0.222429 0.020333 -0.002647 0.153476 -0.037566 0.195143 -0.064329 -0.177540 -0.417408 -0.329977 0.090280 -0.037039 0.173367 0.129926 -0.264769 -0.145414 -0.152621 -0.297851 -0.075228 -0.181494 -0.269620 0.031937 0.124222 0.069081 0.076784 -0.099064 -0.015507 -0.131494 -0.098251 0.002018 0.192898 -0.093898 0.014719 -0.316076 0.168622 0.103023 0.149609 0.233817 0.070779 -0.248283 0.134543 0.055748 -0.065394 0.402851 0.211619 -0.239974 -0.076861 0.132364 -0.032723 0.125858 0.297008 0.223748 0.035437 -0.195642 -0.099392 -0.053109 0.256955 -0.209111 0.248299 -0.176410 -0.335075 0.218111 0.054785 -0.095662 -0.188065 -0.400332
全 0.336944 -0.152669 -0.400632 0.261036 0.129810 -0.045125 0.144305 0.321291 -0.085871 0.231567 -0.235160 0.114375 -0.066294 -0.520307 -0.132259 0.024264 -0.168619 -0.302954 -0.126500 -0.102217 -0.064121 -0.319447 0.590628 -0.239946 0.814460 -0.024201 -0.113117 0.144742 -0.094927 0.206494 -0.301217 -0.231530 0.001179 -0.139951 0.297141 -0.272787 0.005232 0.243936 -0.573059 -0.221520 -0.071241 -0.057176 -0.637339 -0.110955 0.113758 -0.432498 -0.410594 0.042015 0.024960 0.136356 -0.388602 -0.419641 -0.012304 0.061310 -0.196474 0.015640 -0.191993 0.093793 0.131874 0.535280 -0.288833 0.287991 0.022333 -0.229230 0.260905 -0.088912 0.123914 -0.391902 0.187075 0.348822 0.288424 -0.085885 -0.018511 0.024989 0.207474 -0.009720 0.251634 0.052284 0.130084 -0.150549 -0.087102 0.236014 0.000382 -0.064062 0.001073 0.472484 -0.060385 0.094017 -0.238308 -0.058961 -0.233279 -0.148698 -0.117065 0.033859 0.037773 0.233985 0.130403 0.340826 0.276998 -0.092157
价 0.264930 0.031396 -0.150917 -0.110201 0.293386 -0.284447 -0.174544 -0.147068 -0.468247 -0.459467 0.377598 0.193547 0.002502 -0.192568 -0.209061 0.137666 -0.014853 0.207152 -0.099386 -0.244040 -0.000786 -0.410610 0.113696 0.213678 0.215109 0.073843 -0.276433 0.491899 -0.258355 0.267317 0.007439 -0.297044 -0.463581 0.571553 0.205284 0.086718 -0.061611 0.518907 -0.107543 -0.416998 0.284644 0.155803 -0.564114 0.007800 -0.737049 0.063576 -0.386879 -0.099040 0.000802 -0.408268 -0.487466 0.227567 0.207065 0.123535 0.575985 -0.399940 0.166004 0.462550 -0.272836 0.481067 -0.183223 0.078222 -0.181068 0.327722 -0.133015 0.049348 0.312724 -0.050591 -0.145405 0.758749 -0.014003 0.732282 0.408484 -0.371932 -0.631761 -0.178972 0.146262 0.026170 -0.416285 -0.243755 -0.243580 0.227398 -0.070423 -0.303203 0.302369 0.099309 -0.121791 -0.366772 -0.236252 -0.160517 0.213534 -0.400677 0.206472 -0.504701 -0.024950 0.231079 -0.143202 -0.373142 -0.320793 -0.483403
部 0.383089 -0.431910 -0.307037 0.131014 0.409000 -0.135813 0.627032 -0.178508 -0.182772 0.049007 0.500793 -0.264062 -0.046418 0.024790 -0.135839 -0.448261 0.131357 0.002031 0.133630 0.065147 -0.006961 0.023744 -0.369023 -0.466385 0.416597 0.094080 -0.180920 -0.191741 -0.372461 0.423583 -0.312722 0.506591 0.050869 -0.209314 0.326244 -0.191568 0.053349 -0.245948 -0.167622 0.218895 -0.335848 0.310506 -0.584008 0.177416 -0.144162 0.328842 0.138802 -0.011683 -0.488910 0.024343 -0.230713 0.134924 0.143162 0.063506 0.032075 0.298783 -0.199929 0.453272 0.156987 0.176118 -0.129377 0.202763 0.081818 -0.073755 0.685160 0.326796 -0.309340 -0.232919 0.271424 -0.106415 0.224348 0.006525 0.007180 -0.466895 -0.015552 -0.469506 -0.029893 -0.048558 -0.045460 -0.062409 -0.108890 0.155997 0.228977 -0.184102 0.299913 0.393678 0.217540 0.145856 -0.100451 -0.009042 -0.300349 -0.416762 0.207731 0.170440 0.042224 0.108885 -0.231636 0.207399 -0.510992 -0.286338
主 0.005476 -0.402666 -0.282800 -0.214598 0.066193 -0.250088 -0.133800 0.245514 -0.370957 -0.267599 0.308187 0.231060 0.197532 -0.019925 0.346024 -0.213935 -0.323764 0.157076 0.136665 -0.027056 -0.021834 -0.138405 0.092903 -0.488373 0.347215 0.249353 -0.452104 -0.421162 0.097502 -0.366225 -0.008793 0.081206 -0.232546 -0.266761 0.301482 -0.431556 -0.086008 0.426217 -0.008575 -0.122095 -0.530003 0.185740 -0.231929 -0.153918 0.001120 0.190507 -0.072009 0.237573 -0.159249 0.089090 -0.207469 -0.148466 0.022381 -0.145362 0.116521 -0.125868 -0.011567 0.066188 0.005451 0.044181 -0.022927 0.150422 -0.331299 0.173296 -0.059028 0.073736 -0.105655 -0.504879 0.405621 0.483774 0.384767 0.142103 -0.258363 -0.585105 0.109988 0.056125 -0.376170 0.023343 0.199866 -0.128909 -0.694676 0.027321 0.047182 -0.379816 -0.055670 0.082321 0.306242 0.369001 -0.284269 -0.580585 -0.114381 -0.259263 -0.207480 0.310441 -0.106785 0.013744 0.163443 0.104334 -0.190682 -0.450977
与 0.187787 0.169483 -0.350551 0.281382 0.127946 -0.383433 -0.111557 -0.237005 0.047542 0.294068 -0.020228 -0.139433 -0.161435 -0.007028 0.200807 0.059052 0.136999 0.072638 0.405292 -0.149039 -0.023111 -0.125567 0.079728 0.075906 0.176562 -0.047510 -0.068709 -0.462791 -0.094989 -0.182019 0.152630 0.070486 0.178896 0.212226 -0.103221 0.057995 -0.029574 -0.177123 -0.388038 -0.401131 0.108335 0.281213 -0.554315 -0.105536 0.029839 0.149706 0.002504 0.450759 0.095229 0.404120 -0.391923 0.051388 -0.052874 -0.176166 -0.485966 0.211608 0.299928 0.036638 -0.020282 0.217940 -0.245026 0.205864 -0.032838 0.175226 -0.007270 -0.003736 0.244216 -0.601149 -0.150202 0.374558 0.182000 0.010287 -0.267325 0.057609 -0.106394 -0.295635 0.017473 -0.191240 0.615469 -0.127717 -0.715148 0.210095 0.022294 0.338991 -0.302938 0.150954 0.008994 -0.083274 0.173444 -0.529170 0.170736 -0.014928 0.043273 0.165751 0.366458 0.125774 -0.163712 -0.160492 -0.381224 -0.244740
司 -0.177260 -0.349744 -0.186955 0.361338 0.566706 -0.431780 0.606539 -0.116076 0.003923 -0.276568 0.052506 0.059081 -0.216834 0.174389 -0.011760 0.172209 0.063855 0.432280 0.071016 0.255878 -0.006469 0.366535 -0.288858 -0.268063 0.286202 -0.071115 -0.123612 0.057294 -0.195872 0.508354 -0.074813 -0.587592 -0.127586 0.422975 0.639352 0.015470 0.210203 0.107249 -0.493031 -0.121618 0.357791 0.106989 -0.368193 -0.298278 0.240352 0.455239 -0.055285 0.024296 0.190315 0.569628 -0.321951 -0.278407 -0.026610 -0.066566 0.301637 -0.080327 0.414712 0.251689 0.022549 0.123282 -0.042351 0.288866 -0.297236 0.423395 0.188591 0.149089 0.249219 -0.128209 0.195341 0.521287 0.177600 0.075609 0.006028 -0.326728 -0.048095 -0.178681 0.094095 -0.206854 0.216823 0.172588 0.091523 -0.073539 -0.005350 -0.308494 0.010502 0.446164 0.326506 -0.284022 -0.429458 -0.161510 -0.310049 -0.344014 0.424356 0.055280 0.023123 0.127310 -0.226606 0.020881 -0.466971 0.233771
工 0.127734 -0.113382 -0.380757 0.675495 -0.215609 -0.594074 0.206373 0.120451 -0.159387 0.102822 -0.014775 -0.102267 -0.137268 0.014880 -0.093280 0.006477 0.129108 -0.267305 0.213907 -0.006252 -0.379486 0.157290 0.409404 -0.092647 0.389329 0.138116 0.133570 -0.141952 -0.199792 0.397265 0.427897 -0.360542 -0.125855 0.084147 0.352182 0.146207 -0.060511 0.239105 -0.469204 -0.069591 -0.255152 -0.080518 0.035201 0.152899 -0.390916 0.358322 0.013932 -0.452032 -0.678656 0.531804 -0.346247 0.197312 0.128562 -0.058002 0.203352 0.201575 0.277474 -0.040319 -0.161889 -0.008513 0.010514 -0.054685 -0.061317 -0.276333 0.481223 0.130394 -0.008320 -0.425543 0.365289 0.120923 0.143514 0.501086 0.309330 -0.280616 0.043798 -0.044202 0.095965 -0.141044 0.396724 0.166210 0.027254 0.056197 0.109400 -0.171327 -0.059784 0.344045 0.126870 0.165382 -0.216746 -0.277736 -0.068377 -0.302567 0.157510 -0.067531 -0.237088 0.333385 0.090081 0.167510 -0.520804 -0.154793
动 0.081747 -0.064865 -0.041108 0.525042 0.291177 -0.415823 0.041228 0.245379 -0.176576 0.161160 0.125858 -0.051837 -0.273865 0.041610 -0.075837 -0.545602 -0.224802 -0.036656 -0.063018 -0.107452 -0.251391 0.238426 0.746808 -0.266493 -0.284912 0.177068 -0.260147 0.100512 -0.026565 0.638764 0.079455 0.076256 -0.112713 0.432557 0.180849 0.047552 -0.598767 -0.066245 -0.087683 -0.028266 -0.174625 0.062683 -0.149258 0.006957 -0.373700 0.345974 -0.157918 0.143519 -0.028112 -0.102553 -0.115799 -0.437609 0.263816 -0.504282 -0.136689 -0.374481 0.201234 -0.079354 0.094530 0.151313 -0.187689 0.138161 -0.506170 0.053451 0.192324 0.116572 -0.013963 -0.596851 0.075865 0.224695 -0.215005 0.319082 -0.699541 -0.088104 -0.022924 -0.073621 -0.085661 0.131949 -0.041742 0.110011 -0.100533 0.300070 -0.279881 -0.143601 0.116916 0.299547 -0.010640 -0.297051 -0.033563 -0.164796 0.158610 -0.161521 0.050096 -0.076472 0.236950 0.176361 -0.266096 0.075023 0.152330 0.091507
说 -0.017801 -0.080342 -0.015613 0.279888 -0.125543 0.245410 0.114880 0.386857 -0.454182 0.217389 0.051288 -0.089126 -0.190862 -0.473880 -0.475404 0.198901 0.117494 0.352039 -0.385038 0.172772 0.080880 0.059210 0.236894 0.383394 0.228418 -0.144012 -0.696246 -0.196841 0.308032 0.423266 -0.042959 -0.395958 -0.026049 -0.039498 -0.030269 -0.178902 0.186121 -0.108012 0.285559 0.214230 -0.067087 -0.028419 -0.051504 -0.211345 -0.133344 -0.491293 0.141085 0.296392 -0.123803 0.014889 -0.118477 0.071709 -0.009844 -0.362783 0.019656 0.297762 0.112110 0.623054 0.041481 0.217915 -0.027381 -0.367355 -0.295121 -0.012795 0.293839 -0.240386 0.247972 -0.243949 -0.036496 -0.162784 0.340974 0.378377 0.358410 -0.060767 0.020683 -0.015859 -0.332197 0.338655 0.355881 -0.222590 -0.281893 -0.103966 -0.282326 -0.059318 -0.307173 -0.017823 0.527992 -0.248087 -0.098202 -0.188975 0.245448 -0.452604 -0.017585 0.222380 -0.141720 -0.016514 -0.651262 0.131339 -0.223470 -0.177145
用 0.442049 -0.040038 -0.214583 0.542383 0.243510 -0.153835 0.120605 0.072233 0.149705 -0.377944 -0.308189 0.166789 -0.288259 -0.170734 0.060729 0.090982 0.403822 0.384362 0.084116 0.563723 0.069149 0.179120 0.460548 -0.258055 0.054528 0.132824 0.068590 0.017863 -0.116261 0.395097 -0.080192 0.121905 -0.062462 0.216636 0.311000 0.086676 0.003069 0.162019 -0.143522 0.178633 -0.069567 0.151506 -0.164332 -0.054190 -0.636016 0.051179 -0.150850 0.084832 -0.322715 0.392901 0.112936 -0.297237 0.182471 0.177398 0.037956 0.324583 0.409713 0.098436 -0.022355 0.106240 -0.258666 -0.030997 -0.297116 0.034651 0.389629 0.053323 -0.034664 -0.466981 0.103921 0.324602 0.151807 0.464572 0.087047 -0.305699 -0.344072 0.006859 -0.249199 0.231086 0.246508 -0.007771 -0.231900 0.201889 -0.259244 0.169137 0.029515 -0.009914 -0.115554 0.105404 -0.403729 -0.188698 -0.154746 0.145513 -0.379431 -0.018463 -0.134566 0.048739 -0.150783 0.167953 -0.120597 -0.052806
比 -0.008522 0.161985 0.140206 -0.084386 0.374276 0.109888 -0.238654 -0.211962 0.065369 -0.382911 0.045973 0.306855 0.135012 -0.211606 -0.545019 0.135790 -0.024290 0.028254 -0.023032 0.100075 -0.448411 0.174486 -0.237072 -0.015290 0.254382 0.346749 -0.510556 -0.284033 0.425432 0.247361 -0.120301 0.087537 -0.102927 0.656769 -0.382988 -0.158633 0.312010 -0.021317 -0.024727 0.151885 -0.383488 0.015130 -0.336723 0.267341 -0.132318 -0.188013 -0.141593 -0.129590 -0.106375 -0.115906 -0.442896 0.213977 0.108482 0.141423 -0.164678 0.371330 -0.144598 -0.099045 -0.191015 -0.365773 -0.074962 0.029999 -0.249967 0.097466 0.253005 0.195408 0.103233 -0.661505 0.438978 0.697414 0.185702 -0.095745 -0.069562 -0.279597 -0.149783 -0.147807 0.261884 0.063717 -0.047536 -0.095319 -0.532816 -0.185874 0.028808 -0.157175 0.345389 0.313299 -0.068816 -0.273930 -0.276592 -0.601858 0.146657 -0.016409 0.081828 0.224963 -0.266040 0.382160 0.202965 -0.416695 -0.142103 -0.195861
建 0.068047 0.154533 -0.047918 1.147456 -0.074900 -0.538465 0.177267 -0.062682 -0.289874 0.511420 0.272535 0.215446 0.012255 0.070630 -0.131313 0.150872 -0.322095 0.152631 0.029802 -0.093243 -0.140471 -0.103115 0.344227 0.197974 0.230154 0.140531 0.443469 -0.424023 0.088272 0.015528 0.191152 -0.057108 -0.134230 0.515102 0.406104 -0.068682 0.015703 -0.107809 -0.567010 -0.268164 0.029009 -0.062242 -0.451404 0.303780 0.068709 0.536024 -0.670260 0.322468 -0.411993 0.673722 -0.313813 -0.092800 0.011674 -0.032519 0.337090 0.016349 -0.432971 0.243372 0.025235 0.241145 -0.019579 0.386188 0.182051 0.080636 0.166036 -0.157362 -0.032856 -0.063673 0.244026 0.337426 -0.330419 0.185888 0.247029 0.234085 -0.403575 -0.200474 -0.338217 0.311892 0.442308 0.095408 -0.324688 0.307877 0.364264 0.050337 -0.058750 0.551722 0.669313 0.252608 -0.299304 -0.171354 -0.163017 -0.037393 -0.106757 0.078521 -0.057835 -0.215118 -0.034204 0.097606 0.048425 -0.191354
面 0.061338 -0.091084 -0.045013 0.560519 0.033478 0.188210 -0.013697 0.059493 -0.256611 -0.022118 -0.168416 0.375284 0.063021 -0.290612 -0.116706 0.021735 -0.318638 0.072764 0.131274 0.371370 -0.570651 0.405636 -0.301800 -0.218545 0.234857 0.341083 0.095842 0.163853 0.155669 -0.098434 0.371773 0.316431 -0.407439 0.178640 0.679152 0.060151 0.442840 0.072978 -0.412350 -0.122084 -0.316086 0.333076 -0.184163 0.302231 -0.010167 0.086574 0.002974 0.044787 -0.386504 0.028595 -0.028097 0.175178 0.168258 -0.115503 -0.094560 -0.101297 -0.201565 0.219137 -0.066348 0.444445 -0.152061 0.320772 0.104406 0.369280 0.637593 0.211435 0.030188 -0.413786 -0.103245 0.225857 0.118635 -0.016818 -0.009172 -0.009546 -0.232778 0.031619 0.071417 0.244916 -0.031429 -0.408614 -0.075463 -0.033796 0.111374 -0.305650 -0.257512 0.178794 0.439624 -0.370125 0.091640 -0.268900 0.197382 0.177572 -0.056923 0.045226 -0.026195 0.254602 -0.465433 -0.060559 -0.279314 -0.354947
力 0.001035 -0.105549 0.125129 0.783031 0.285363 -0.375885 0.233826 -0.267085 -0.409507 0.174661 -0.112268 0.063392 0.482708 -0.406968 -0.163639 -0.425144 0.414561 0.062490 -0.023669 0.227048 -0.073757 0.032933 0.049333 -0.265702 0.362885 0.114448 -0.218320 0.163233 0.073981 -0.072567 -0.031663 0.269109 0.151350 0.149706 0.414596 -0.194262 -0.527948 0.028627 0.135567 -0.099280 0.050755 -0.121283 -0.387887 0.251356 -0.057773 -0.219891 0.115419 0.568252 0.209137 -0.167172 -0.301964 -0.154251 -0.320455 0.109714 -0.210812 0.065643 0.088744 -0.089307 -0.126623 -0.020049 -0.054514 0.492065 -0.356435 0.100162 0.532137 -0.023441 0.114398 -0.308796 0.155708 0.003714 0.049453 0.153145 -0.443559 -0.466428 -0.531631 0.000355 -0.038525 -0.151696 -0.220492 0.371335 -0.076253 0.134714 -0.488523 0.034289 -0.172343 0.245945 0.240640 -0.154420 -0.186014 0.132581 -0.396323 -0.416663 -0.075704 -0.332408 -0.149302 0.411370 -0.019557 -0.079823 -0.524657 0.132638
体 0.125964 -0.657564 0.104492 0.231026 -0.243018 -0.351731 0.056303 -0.120644 -0.245485 -0.197967 -0.012443 -0.168416 0.361403 -0.108692 0.038056 0.452499 -0.303931 0.109838 0.003698 -0.023582 -0.839310 0.008818 0.138991 -0.205078 0.365066 0.041383 0.104724 -0.199020 0.017495 0.510294 -0.140748 -0.012964 0.231556 0.130613 0.052137 -0.403261 -0.369849 -0.228601 -0.306132 -0.344823 -0.472809 -0.171286 0.014776 0.483206 -0.321095 0.098153 -0.165807 -0.099590 -0.080026 0.057746 -0.133407 -0.793960 -0.057020 -0.007890 -0.199411 -0.336134 0.464979 0.026298 -0.352541 0.171569 -0.314098 0.171079 0.213049 -0.285112 0.423234 -0.089496 0.141027 -0.981438 -0.025922 -0.075571 -0.187971 0.025657 -0.023837 -0.149022 -0.249514 -0.133843 -0.204815 -0.064091 0.100996 -0.033809 0.177396 -0.257835 -0.090950 -0.079821 -0.231297 0.337893 0.127979 -0.049237 -0.015567 0.014967 -0.193881 0.219006 0.233688 -0.092636 0.119323 0.083448 -0.213684 0.246707 -0.239994 -0.143977
元 0.399036 0.018228 0.533020 0.142126 0.012363 -0.445868 -0.551339 -0.187654 -0.444687 -0.532128 0.061895 -0.061319 0.247485 -0.550168 -0.102919 0.245504 0.098061 0.538743 0.009440 0.611032 -0.098392 -0.820174 -0.122602 -0.345572 0.173253 0.282395 -0.362281 0.311947 -0.430992 0.244947 -0.254955 -0.235920 -0.795457 0.655798 0.135397 -0.140847 0.153043 -0.000652 0.118351 -0.241116 0.417314 -0.305979 -0.362183 0.318568 -0.003411 0.116057 -0.010744 -0.237715 -0.221253 0.190338 -0.059848 -0.032329 0.167318 0.220730 0.206344 0.059211 0.518754 0.004611 0.169566 0.345429 -0.007665 -0.140044 -0.181078 0.210159 0.039880 -0.030025 0.434963 0.120789 -0.107699 0.660182 -0.113154 0.134014 0.397319 -0.348758 -0.024042 -0.681392 0.335990 -0.041753 0.032516 -0.504692 -0.370174 0.465690 0.037061 -0.566393 0.327703 0.677217 0.477024 -0.192355 -0.220671 -0.195847 0.293790 -0.364902 -0.071645 0.107208 0.629868 -0.063097 -0.210639 -0.490714 -0.165381 -0.225000
而 0.042005 -0.172558 -0.179469 0.085178 0.317519 -0.324395 -0.079845 -0.040201 -0.057417 -0.117858 0.029557 -0.003401 0.223419 -0.162647 0.012349 0.179969 -0.022543 0.123354 0.330079 0.084631 -0.372432 0.003173 -0.177716 -0.386930 0.253855 -0.058570 -0.129337 -0.018495 0.082820 0.141851 0.105714 -0.179335 0.042218 0.152888 0.255334 0.003621 0.009037 -0.011959 -0.008729 -0.089170 -0.188889 -0.306523 -0.516231 -0.107793 -0.213953 -0.299112 0.161658 -0.024301 -0.124395 -0.265717 -0.177832 -0.121103 0.052698 -0.283807 -0.064578 0.297208 -0.038810 -0.084012 0.077201 -0.085369 -0.113864 0.204502 -0.179033 0.062564 -0.042347 0.059813 0.130348 -0.285995 -0.119307 0.100800 0.082708 0.054017 -0.058770 -0.178301 -0.308731 0.071708 0.195127 0.175709 0.197836 0.062959 -0.176682 0.011022 -0.312983 0.004173 0.207384 0.065455 -0.146496 -0.095359 -0.058919 -0.055298 0.308129 -0.186675 0.167045 -0.276929 0.066165 0.283964 0.097207 0.056318 -0.196386 0.008102
房 -0.076658 -0.033215 -0.259381 0.212890 0.097641 -0.472696 -0.136329 0.250599 -0.113335 0.016743 0.302847 0.299854 0.018085 -0.451861 -0.448714 0.290600 0.160404 -0.068618 -0.150494 0.083273 -0.118386 -0.099036 -0.571586 0.103766 0.268703 0.271668 0.133765 -0.186330 -0.019679 0.323405 0.189233 0.132481 0.090469 0.178315 0.346291 -0.381170 0.397435 0.126456 -0.146476 0.231203 0.776470 -0.135707 -0.413333 0.358197 -0.116563 0.282070 -0.435094 0.024822 -0.174029 0.256028 0.186805 -0.158725 0.282842 -0.014659 0.291040 -0.594958 0.517902 0.311148 0.008986 0.561795 -0.276978 0.394332 -0.210654 -0.159696 -0.197281 -0.437548 -0.506169 -0.524611 0.031074 -0.029443 0.274084 0.310690 0.018425 -0.453683 -0.212685 0.357721 0.103011 0.237463 0.482519 -0.326690 0.017835 -0.140841 0.064287 -0.150698 -0.044216 0.318222 -0.247622 -0.087348 -0.307511 -0.377141 -0.219682 -0.582307 0.346332 -0.316595 0.050988 0.091563 0.013285 -0.506481 0.102051 -0.741546
天 -0.448536 0.080228 0.421453 0.050351 0.020759 -0.200712 0.393813 0.037919 -0.425879 0.180988 0.232312 0.140154 0.144869 -0.374293 -0.333390 0.517425 -0.065466 0.254585 0.277928 -0.022360 -0.258371 -0.137190 0.432596 0.158510 0.328714 -0.266572 -0.269760 -0.214205 0.027506 0.084683 -0.230848 0.229412 -0.100242 0.187444 0.093791 0.040583 -0.350183 -0.170132 -0.319718 -0.257054 0.073074 0.403688 -0.412588 -0.009892 -0.238981 0.169698 0.581570 0.075979 0.071331 -0.095792 0.034270 -0.272384 0.085980 -0.275658 -0.009873 -0.047817 0.196941 0.195420 0.260823 0.016299 0.346296 -0.542604 -0.201180 0.089420 0.329280 -0.035053 0.011330 -0.054541 0.229255 0.020062 0.218800 0.214909 0.445185 -0.265635 -0.189365 0.004217 -0.029941 0.278734 0.121555 -0.244147 -0.020968 -0.044760 0.314577 -0.042766 -0.070254 0.183718 -0.127904 -0.173622 -0.217136 0.281643 0.057810 -0.390302 0.380996 0.164283 0.324730 0.458890 0.083994 -0.115208 -0.046981 0.219254
小 -0.151863 0.397382 -0.163454 0.283786 0.321347 -0.256275 0.087077 -0.176696 -0.272091 -0.207809 0.240894 0.161994 0.456984 -0.423492 -0.169181 0.447172 -0.113056 -0.324475 -0.236325 0.153581 0.132582 0.163024 -0.368852 -0.358158 0.142476 0.180643 -0.131630 -0.125022 0.027741 -0.010023 -0.106247 0.203221 -0.311238 0.203165 -0.157849 0.163241 0.021072 0.297361 -0.349867 0.435659 -0.215518 -0.033356 0.234095 -0.029506 -0.137973 0.026821 0.211461 0.232664 -0.299812 0.008487 -0.050661 -0.145307 -0.259425 -0.238478 -0.050768 -0.144964 0.369194 0.187380 0.075189 0.065770 -0.122345 -0.162074 -0.192280 -0.003717 0.182380 0.181189 -0.250045 -0.289473 0.371934 0.248724 -0.102149 -0.127235 -0.061400 0.036686 0.037457 -0.435626 -0.191589 0.603810 0.418114 0.231266 -0.356492 0.155603 -0.187082 0.159685 0.339116 0.025165 0.160786 0.121655 -0.110607 0.151847 0.213990 -0.452602 0.019606 -0.023241 0.085700 0.055321 0.037474 -0.011515 -0.052176 -0.238061
通 0.318517 -0.256041 -0.572379 0.496372 0.464134 -0.131317 -0.089603 0.001277 -0.179263 0.012940 -0.071358 0.248064 0.195781 -0.123001 0.344675 -0.077980 -0.210738 0.148258 0.285890 -0.143625 -0.174170 0.181824 0.135153 0.133793 0.392879 -0.051421 -0.013209 -0.375036 -0.441790 0.215865 -0.593798 -0.430389 -0.402796 0.045238 -0.262059 -0.043428 -0.116352 -0.170906 -0.066108 0.049971 0.180487 0.183962 -0.290208 -0.027715 -0.286652 0.203652 -0.225308 0.202619 -0.357019 -0.300755 -0.608459 0.083443 0.069958 0.259032 0.232695 0.101252 0.128017 -0.278157 -0.115715 0.344915 -0.200878 -0.186735 0.049955 -0.101550 0.436093 -0.007428 -0.127802 -0.501619 -0.097135 0.008511 0.270717 0.155245 0.066633 0.227517 0.068311 -0.237701 -0.377733 0.211799 0.598808 -0.024250 -0.390235 -0.054457 -0.065057 -0.600420 -0.257095 0.470879 0.133746 0.026597 -0.342119 0.158124 0.264006 -0.590590 0.319180 -0.129051 0.155086 -0.157406 -0.015094 -0.685407 0.153258 0.371910
重 -0.165189 0.127874 0.122251 0.115933 0.291054 -0.450893 -0.061918 0.060720 -0.580134 -0.058802 -0.064826 0.018992 0.278048 -0.083014 0.253008 0.036637 -0.367132 -0.354441 0.424095 0.033763 -0.193330 -0.097365 0.069346 -0.461612 0.110441 0.094496 -0.053719 -0.451713 0.110660 -0.145098 0.409010 -0.246814 0.052736 -0.030143 0.482687 -0.006284 -0.285685 0.076748 0.000858 -0.236115 0.027525 -0.290533 -0.095725 -0.253449 -0.127458 0.063925 0.221911 0.268397 -0.635961 0.426506 0.102991 -0.065892 -0.353816 0.410039 -0.129057 0.023890 -0.012819 0.114559 -0.209721 0.111316 -0.163794 0.475652 0.124987 0.173957 0.679785 0.027962 -0.474357 -0.247629 0.212735 0.415883 0.165085 0.209688 -0.059037 -0.152973 -0.181009 0.214952 0.099243 0.400777 0.299785 0.086427 -0.574100 -0.138901 -0.035897 -0.063106 0.037050 0.298846 0.434627 -0.066716 -0.279162 -0.098927 -0.278831 -0.102881 0.279681 -0.345159 0.129204 -0.128491 0.115894 -0.033725 0.032605 -0.204172
最 0.063141 0.241626 -0.065439 0.355174 0.120072 -0.090829 0.088225 0.156473 -0.470482 0.104959 0.130492 0.343256 0.392867 -0.148615 -0.120113 0.081829 -0.268060 -0.065963 -0.283399 0.236341 -0.184549 -0.556463 0.011125 -0.388394 0.076005 0.226065 -0.011290 -0.213661 -0.044789 0.012700 -0.212071 -0.216533 0.402060 0.556968 0.648875 -0.205532 -0.034035 -0.077831 0.020792 -0.152872 -0.324617 0.032359 0.007084 -0.145213 0.015125 0.043622 -0.262272 -0.293247 -0.295597 -0.348365 -0.459765 -0.165931 -0.085692 0.084671 -0.193428 0.303856 -0.082861 0.398783 -0.036615 -0.317138 -0.008118 0.287155 -0.284722 -0.215821 -0.256178 -0.251699 -0.061077 -0.388043 -0.144989 0.177001 0.071799 0.011904 0.369885 -0.065868 -0.178198 0.217981 0.081858 0.177193 0.148389 0.061079 -0.314317 -0.045362 0.038543 -0.070056 0.279671 0.358125 -0.170036 -0.382680 -0.098080 -0.109308 0.021421 0.129379 0.269846 -0.071135 -0.128373 0.105538 0.466582 -0.200205 -0.158510 0.022552
都 0.010747 0.144926 -0.304055 0.071028 -0.282438 -0.217740 -0.011055 0.072330 -0.037477 0.099934 -0.145892 0.179195 0.227906 -0.164207 -0.089115 0.149485 -0.336761 -0.332212 0.270722 -0.022396 -0.244026 0.331957 0.127803 -0.099911 0.280389 0.140538 -0.371903 0.074268 0.056302 0.372811 -0.074333 -0.169823 -0.024195 0.177690 0.443052 0.204666 -0.183257 0.148348 -0.326567 0.206168 0.162975 0.002196 -0.530363 -0.242463 0.055976 -0.000930 0.110966 0.204601 -0.346223 -0.130579 -0.108983 -0.243567 -0.109394 -0.024708 0.010286 0.078831 0.241365 0.193485 -0.065583 0.029953 0.072174 0.002448 -0.266817 0.000706 0.170076 -0.050138 -0.077742 -0.392715 -0.006635 -0.036189 0.105178 -0.055480 0.207496 -0.075137 0.127183 -0.037785 -0.101153 0.391137 0.207080 -0.029898 -0.136016 0.101121 0.230876 -0.181407 -0.055751 0.154787 -0.075902 -0.073915 -0.200002 -0.124284 0.175465 -0.153468 0.092190 -0.076892 -0.341450 0.205475 0.072774 -0.027677 -0.168160 -0.363569
点 0.079401 0.393572 0.123924 -0.025181 0.002191 -0.111266 -0.441036 -0.054062 -0.187898 -0.064284 0.108236 0.236917 0.283223 0.198289 0.074599 0.145151 -0.057504 0.027085 0.156969 -0.035109 0.291479 -0.774873 -0.199842 0.367551 0.104728 -0.030751 0.017264 -0.680836 -0.122297 0.222831 -0.134160 0.029538 0.107026 0.411447 -0.067508 -0.457020 -0.269598 0.386360 -0.164384 0.165123 -0.267577 0.113497 -0.631022 0.109306 -0.295843 0.472548 -0.576495 0.138727 -0.298397 -0.233826 0.128962 -0.141813 0.002266 0.011794 -0.061301 0.358643 -0.160159 0.258198 -0.258186 0.482615 0.061673 0.016210 0.033785 0.040218 0.253446 0.139244 -0.024451 -0.688057 0.289873 0.598428 0.311391 0.096926 0.355213 0.129602 -0.304528 -0.043886 0.688807 0.283637 -0.121430 -0.146571 -0.041090 0.057480 0.392334 -0.139184 0.369267 0.542388 0.256047 -0.091126 0.016641 0.312762 0.041157 -0.232731 0.057612 0.132648 0.224798 0.336143 0.056667 0.323546 -0.023451 0.021301
定 -0.355112 -0.202513 0.051124 0.192864 0.162348 0.134144 -0.037647 0.051651 -0.319040 0.301688 -0.349661 -0.461183 0.159991 0.171316 -0.071323 -0.406822 -0.576721 0.056000 -0.080786 0.003969 0.189309 -0.243714 -0.219683 -0.164247 0.259196 -0.111273 0.091378 -0.059733 0.238685 0.101634 -0.190878 -0.206698 -0.001729 0.575917 0.359097 0.112082 -0.032110 -0.188645 -0.339943 -0.273687 0.052219 0.174652 -0.382860 0.043362 -0.282918 -0.274051 -0.220044 -0.209749 -0.151065 0.250347 -0.684471 -0.330038 0.096080 -0.117287 0.104599 -0.041293 0.441322 0.198644 0.131940 0.275276 0.253132 -0.048629 -0.241814 0.136078 0.551265 -0.144853 -0.294221 -0.039107 0.403043 0.356854 0.288264 0.250224 -0.022788 -0.451125 -0.239278 0.154892 -0.065203 0.278578 0.367417 0.083395 -0.066223 0.192813 -0.408400 0.162171 0.155337 0.193623 0.080399 0.309884 -0.299265 -0.055358 0.115328 -0.022080 0.239249 -0.030715 0.287832 0.333664 0.042338 -0.556041 0.125652 -0.448892
合 0.489753 -0.420157 -0.035130 0.155882 0.129624 -0.539094 -0.066129 -0.348836 -0.020688 -0.074802 -0.230916 -0.673681 0.055656 -0.428007 0.056881 0.247926 -0.050146 -0.287574 0.267752 -0.354769 -0.217651 -0.071899 0.395306 -0.041450 0.499188 -0.093927 -0.197299 -0.113983 -0.208171 0.146008 -0.267098 -0.016537 -0.132357 0.430577 0.200501 0.208837 -0.169517 0.258774 -0.150029 0.213721 -0.161696 -0.076261 -0.083707 0.256224 -0.430491 0.200961 -0.415026 -0.118774 0.409311 0.411560 -0.288982 -0.387304 0.043423 0.301579 -0.251138 -0.178148 0.036875 0.454824 0.288509 -0.159508 -0.354533 0.314530 -0.422511 0.146843 -0.104136 0.397193 0.080662 -0.822396 0.198931 0.418966 -0.273266 0.324571 0.508762 -0.460616 -0.109176 -0.163547 0.225167 0.038791 0.498278 0.271508 -0.435435 0.047353 -0.225356 0.163000 -0.159364 0.354203 0.506908 -0.250996 -0.026454 -0.237843 -0.135742 0.082036 -0.125652 -0.198595 -0.340840 -0.045099 -0.047622 -0.100481 -0.549396 -0.213824
内 0.503549 0.070765 -0.332958 0.255547 0.450647 -0.578504 -0.207685 0.058502 -0.386313 0.046393 0.029710 0.220660 -0.120520 0.094490 -0.288855 0.128462 0.102088 -0.225938 0.153258 -0.144710 -0.001529 -0.250066 0.263712 0.146229 0.951317 -0.152519 0.106003 -0.351392 -0.325794 0.212584 -0.147110 0.040839 -0.450903 0.086308 0.556239 -0.373488 0.185288 0.259250 -0.129503 -0.071061 -0.443206 0.289258 -0.679791 -0.163937 -0.152045 0.012440 0.133159 -0.264523 0.057046 0.408236 -0.347402 -0.199153 -0.259802 0.024188 -0.101432 0.194563 0.276679 -0.010926 -0.164394 0.146806 -0.030582 -0.072487 -0.104485 0.033139 0.078467 0.107817 0.147956 -0.347786 0.282208 0.118409 -0.243315 -0.184584 -0.396951 -0.123356 0.127694 0.152476 -0.093783 -0.149638 0.409186 0.204476 -0.001466 -0.115603 0.117783 0.059905 -0.134607 -0.203395 0.260376 -0.185165 -0.366513 -0.013671 -0.085162 -0.364000 0.190236 -0.123517 -0.163143 -0.257087 -0.250887 0.145398 0.213940 -0.332006
机 0.104747 -0.101270 -0.118904 0.460639 -0.225254 -0.832313 0.268720 -0.050605 -0.156273 -0.341897 -0.072656 -0.194204 -0.366353 0.053282 -0.386996 0.035195 -0.039580 -0.137768 -0.147773 -0.158129 0.046990 -0.210652 0.098617 -0.262703 0.356033 -0.172494 0.138835 0.433598 -0.402743 0.030140 -0.295109 -0.050887 0.368270 -0.105384 -0.185450 0.102099 0.143712 0.345574 -0.248901 0.064586 0.268044 -0.128059 -0.138857 -0.240752 -0.355575 0.351543 0.089762 -0.027636 -0.210878 -0.526455 0.084402 -0.458213 0.099276 -0.166422 -0.272896 0.225554 0.283013 -0.009171 0.027169 0.550495 -0.266018 0.401251 0.346961 0.573341 0.285931 -0.407285 0.056104 -0.517807 0.104768 0.718793 -0.196525 0.392633 0.040758 -0.542608 0.267949 -0.120165 0.166728 0.251203 0.011118 -0.095796 -0.295002 0.044957 -0.387801 -0.264499 0.253930 0.374446 0.137142 0.398074 -0.168495 0.167047 -0.403235 0.064175 0.361191 0.119257 -0.331442 0.383811 -0.370183 -0.365129 -0.395754 -0.102185
同 0.216308 -0.128878 -0.180678 0.476797 0.140417 -0.230593 0.265444 -0.214900 -0.047855 -0.049152 -0.012572 -0.419313 0.321039 -0.226987 -0.115542 -0.082362 -0.115614 -0.132956 0.056890 -0.128486 0.044097 0.345026 -0.387306 0.177061 0.003207 0.042063 -0.095736 -0.270251 -0.111806 0.059172 0.215384 -0.033708 -0.264856 0.137900 0.177738 -0.120349 -0.370802 -0.086954 -0.083433 0.163902 -0.135468 -0.120106 -0.241180 -0.280574 -0.149899 -0.217893 0.083444 -0.311070 0.078682 0.162701 -0.444252 -0.087574 0.026910 -0.130653 0.214812 -0.414745 0.219480 0.119921 0.120903 -0.008797 -0.184594 0.219473 -0.081086 0.422367 0.276320 -0.059479 -0.010012 -0.272816 0.255694 0.336468 -0.027974 -0.068123 0.043030 -0.163595 -0.119540 0.001364 0.124641 0.138122 0.527053 -0.097966 -0.612700 0.550671 -0.110107 0.254101 0.181061 0.136798 0.028636 -0.170910 -0.297870 -0.121178 0.098785 -0.009775 -0.081018 0.418260 0.394036 0.536922 0.149328 -0.245217 -0.142477 -0.298410
理 0.008893 -0.690326 -0.281268 -0.006001 0.291079 -0.408400 0.102986 0.345339 -0.279249 0.173484 -0.025470 0.067012 0.120265 0.370834 -0.420136 0.402094 -0.136566 0.210150 -0.200774 0.078245 -0.825266 0.112095 -0.065971 -0.319669 0.337888 0.002649 -0.350251 -0.111855 -0.382442 0.086141 -0.017603 -0.141215 0.053966 0.213504 0.323473 -0.301852 0.160284 -0.470774 0.260848 0.310305 -0.198266 0.042135 0.259964 0.062262 -0.153874 0.097389 -0.281889 0.245350 0.225097 0.024839 -0.418940 0.040903 -0.050887 0.117186 0.130490 -0.103028 0.412586 0.302019 -0.009020 0.329703 0.058020 0.075155 -0.006148 0.260202 0.178315 0.122145 0.356676 -0.250614 0.272071 0.088224 0.223860 0.363049 0.041552 -0.191592 -0.319605 -0.219077 -0.424376 0.188410 0.145999 0.116079 -0.192578 0.386632 -0.134287 0.072529 0.164232 0.525330 0.131040 0.350950 -0.071206 -0.230827 -0.407789 -0.487620 -0.196916 0.059393 0.042688 0.099474 -0.023006 -0.060327 -0.401619 -0.151389
加 -0.152756 0.117837 -0.038152 0.263665 0.344243 -0.283808 0.232407 -0.493853 -0.222671 -0.208851 -0.384798 0.605031 -0.174888 0.268441 -0.071551 -0.289865 0.244004 0.218462 0.052825 0.141140 -0.290350 -0.021382 -0.039009 0.029709 0.380094 0.394089 -0.133376 -0.190244 -0.097212 0.153135 0.108608 0.177153 0.082280 0.401058 0.089062 0.197648 -0.285362 -0.021520 -0.235544 -0.086783 -0.623129 -0.128643 -0.259542 -0.127302 -0.226383 0.048042 -0.225061 -0.072385 -0.060837 0.086808 -0.138469 0.134707 -0.110314 0.045217 -0.153446 0.034583 0.497779 -0.493843 -0.099922 -0.309854 -0.003458 0.130141 -0.191511 0.176518 0.349051 -0.014185 -0.065629 -0.162154 -0.037510 0.181359 0.057746 0.270919 0.176174 0.089177 -0.037573 -0.008529 0.218423 -0.453395 0.056659 -0.170929 -1.078491 0.108564 -0.060403 0.491736 0.008148 0.350592 0.217308 -0.117778 -0.227316 -0.544639 0.143709 -0.105009 0.230212 0.002415 -0.017816 0.304456 0.222650 -0.028771 -0.164653 -0.157236
得 0.105057 0.119698 -0.127593 0.339927 -0.044280 0.139533 -0.405116 -0.025059 -0.058860 0.104453 -0.002436 0.174555 0.332616 0.037296 0.019263 0.034914 0.067895 0.390838 0.250670 0.409975 -0.202443 0.239449 -0.139192 -0.303984 0.250644 0.338098 -0.053859 0.245698 -0.364610 0.598726 -0.124112 0.114878 0.128425 0.303521 0.056189 0.077832 -0.075420 0.185520 -0.117897 0.091957 -0.217405 -0.119964 -0.414590 -0.314596 -0.054698 0.119010 0.094512 0.322285 0.109323 0.138678 -0.132974 -0.296447 0.272359 0.091444 -0.122107 0.265550 -0.196165 -0.137247 0.036059 -0.177226 -0.003545 0.275980 -0.533505 -0.213991 0.255510 0.039245 0.069369 -0.170096 0.052305 -0.178809 -0.172525 0.390103 0.314641 -0.367541 -0.322877 -0.103783 0.218744 0.639409 -0.075003 -0.147007 -0.622458 0.083899 0.018693 0.011240 0.324609 -0.147694 0.036212 -0.397584 -0.120722 -0.045874 -0.200881 -0.146427 0.172095 0.059309 -0.223574 -0.022456 0.496193 -0.104812 -0.059711 -0.023134
队 0.123146 0.273558 0.216693 0.262437 -0.019660 0.186682 0.816718 -0.038559 -0.457235 -0.186511 0.201607 -0.303084 -0.120158 0.074913 -0.055629 -0.150766 -0.179829 0.494084 -0.114028 0.091030 -0.397889 0.006767 0.321441 0.001792 0.391794 0.023885 -0.515807 -0.099044 -0.127646 0.185654 0.041090 0.493093 0.490086 -0.181603 0.255086 -0.207267 0.005754 0.100654 -0.179465 0.062944 -0.228435 0.106853 -0.581002 -0.185819 0.023069 -0.282958 -0.293468 0.467613 -0.033826 -0.029266 -0.252770 -0.134907 -0.041767 -0.352324 -0.445400 0.448126 0.060644 0.111470 -0.112481 -0.135414 -0.338854 0.545940 -0.214425 0.030004 -0.021215 0.190405 0.278504 -0.510462 0.558926 0.201735 -0.253142 -0.053280 -0.150812 0.397261 0.290246 -0.585097 0.308273 0.156810 0.125591 -0.202482 0.070224 -0.322325 0.283400 -0.378536 0.030562 0.641042 -0.104736 -0.075028 -0.548292 0.014434 0.239332 -0.286956 0.035531 0.475342 0.212679 0.364907 0.272388 -0.086092 -0.221821 0.072569
